{"learner":{"attributes":{"scikit_learn":"{\"_estimator_type\": \"classifier\"}"},"feature_names":[],"feature_types":[],"gradient_booster":{"model":{"gbtree_model_param":{"num_parallel_tree":"1","num_trees":"200"},"iteration_indptr":[0,1,2,3,4,5,6,7,8,9,10,11,12,13,14,15,16,17,18,19,20,21,22,23,24,25,26,27,28,29,30,31,32,33,34,35,36,37,38,39,40,41,42,43,44,45,46,47,48,49,50,51,52,53,54,55,56,57,58,59,60,61,62,63,64,65,66,67,68,69,70,71,72,73,74,75,76,77,78,79,80,81,82,83,84,85,86,87,88,89,90,91,92,93,94,95,96,97,98,99,100,101,102,103,104,105,106,107,108,109,110,111,112,113,114,115,116,117,118,119,120,121,122,123,124,125,126,127,128,129,130,131,132,133,134,135,136,137,138,139,140,141,142,143,144,145,146,147,148,149,150,151,152,153,154,155,156,157,158,159,160,161,162,163,164,165,166,167,168,169,170,171,172,173,174,175,176,177,178,179,180,181,182,183,184,185,186,187,188,189,190,191,192,193,194,195,196,197,198,199,200],"tree_info":[0,0,0,0,0,0,0,0,0,0,0,0,0,0,0,0,0,0,0,0,0,0,0,0,0,0,0,0,0,0,0,0,0,0,0,0,0,0,0,0,0,0,0,0,0,0,0,0,0,0,0,0,0,0,0,0,0,0,0,0,0,0,0,0,0,0,0,0,0,0,0,0,0,0,0,0,0,0,0,0,0,0,0,0,0,0,0,0,0,0,0,0,0,0,0,0,0,0,0,0,0,0,0,0,0,0,0,0,0,0,0,0,0,0,0,0,0,0,0,0,0,0,0,0,0,0,0,0,0,0,0,0,0,0,0,0,0,0,0,0,0,0,0,0,0,0,0,0,0,0,0,0,0,0,0,0,0,0,0,0,0,0,0,0,0,0,0,0,0,0,0,0,0,0,0,0,0,0,0,0,0,0,0,0,0,0,0,0,0,0,0,0,0,0,0,0,0,0,0,0],"trees":[{"base_weights":[2.7407688E-1,-3.0063202E0,1.2005813E0,-3.6178417E0,-7.379678E-1,-1.9714907E-2,1.2370703E-1,-4.1661906E0,-1.3834312E0,5.607623E-2,-1.6328564E0,-1.2160728E-1,-4.331598E-1,7.961407E-3,-2.674178E-1,-2.8141195E-2,-2.6261172E-1,-7.46058E-2,7.0543185E-2],"categories":[],"categories_nodes":[],"categories_segments":[],"categories_sizes":[],"default_left":[0,0,0,0,0,0,0,0,0,0,0,0,0,0,0,0,0,0,0],"id":0,"left_children":[1,3,5,7,9,-1,-1,11,13,-1,15,-1,-1,17,-1,-1,-1,-1,-1],"loss_changes":[3.180247E2,2.932965E1,4.3944626E0,1.6185135E1,8.068762E0,0E0,0E0,1.5087738E0,9.049666E0,0E0,4.495453E0,0E0,0E0,2.3229308E0,0E0,0E0,0E0,0E0,0E0],"parents":[2147483647,0,0,1,1,2,2,3,3,4,4,7,7,8,8,10,10,13,13],"right_children":[2,4,6,8,10,-1,-1,12,14,-1,16,-1,-1,18,-1,-1,-1,-1,-1],"split_conditions":[-8.217043E-1,-2.8744125E-1,-7.0325536E-1,4.8972917E-1,-2.7090147E-1,-1.9714907E-2,1.2370703E-1,-1.1751801E0,-1.1770513E0,5.607623E-2,3.947769E-1,-1.2160728E-1,-4.331598E-1,-2.334119E-1,-2.674178E-1,-2.8141195E-2,-2.6261172E-1,-7.46058E-2,7.0543185E-2],"split_indices":[4,1,4,5,2,0,0,8,4,0,1,0,0,9,0,0,0,0,0],"split_type":[0,0,0,0,0,0,0,0,0,0,0,0,0,0,0,0,0,0,0],"sum_hessian":[1.0244984E2,2.2068598E1,8.038124E1,1.6913889E1,5.154709E0,1.9330158E0,7.844823E1,1.2886772E1,4.0271163E0,2.2551851E0,2.8995237E0,1.1275926E0,1.175918E1,2.4162698E0,1.6108465E0,1.7719312E0,1.1275926E0,1.1275926E0,1.2886772E0],"tree_param":{"num_deleted":"0","num_feature":"11","num_nodes":"19","size_leaf_vector":"1"}},{"base_weights":[2.649688E-1,-2.2400677E0,1.1689652E0,-2.7266452E0,9.378347E-2,1.9867197E-1,1.20715015E-1,-2.8920562E0,-1.1238185E0,-8.150377E-2,8.313474E-2,-3.1238064E-1,-1.1858281E0,2.0399091E-3,-1.9805968E-1,7.525277E-2,-2.3583925E-1],"categories":[],"categories_nodes":[],"categories_segments":[],"categories_sizes":[],"default_left":[0,0,0,0,0,0,0,0,0,0,0,0,0,0,0,0,0],"id":1,"left_children":[1,3,5,7,-1,9,-1,11,13,-1,-1,-1,15,-1,-1,-1,-1],"loss_changes":[2.2735179E2,4.3779892E1,2.4863815E0,2.947174E0,0E0,3.2321103E0,0E0,4.422699E0,3.7874608E0,0E0,0E0,0E0,1.1024512E1,0E0,0E0,0E0,0E0],"parents":[2147483647,0,0,1,1,2,2,3,3,5,5,7,7,8,8,12,12],"right_children":[2,4,6,8,-1,10,-1,12,14,-1,-1,-1,16,-1,-1,-1,-1],"split_conditions":[-7.2138864E-1,-7.0325536E-1,-9.401533E-1,-9.68658E-2,9.378347E-2,6.1936253E-1,1.20715015E-1,-9.2300534E-1,-1.4938143E-2,-8.150377E-2,8.313474E-2,-3.1238064E-1,-1.0586023E0,2.0399091E-3,-1.9805968E-1,7.525277E-2,-2.3583925E-1],"split_indices":[10,4,4,9,0,10,0,10,9,0,0,0,4,0,0,0,0],"split_type":[0,0,0,0,0,0,0,0,0,0,0,0,0,0,0,0,0],"sum_hessian":[9.823994E1,2.565903E1,7.258091E1,2.2375113E1,3.2839167E0,2.9830573E0,6.959785E1,1.9552914E1,2.8221996E0,1.0355687E0,1.9474885E0,1.6483236E1,3.0696783E0,1.6263795E0,1.1958201E0,1.2920396E0,1.7776386E0],"tree_param":{"num_deleted":"0","num_feature":"11","num_nodes":"17","size_leaf_vector":"1"}},{"base_weights":[2.4279803E-1,-1.8839494E0,1.1413094E0,-2.2655714E0,9.189634E-2,7.3842523E-3,1.1811602E-1,-2.837885E-1,-9.133069E-1,7.1581624E-2,-7.935421E-2,-1.870782E-1,5.7296157E-1,9.3967564E-2,-2.4322925E-2],"categories":[],"categories_nodes":[],"categories_segments":[],"categories_sizes":[],"default_left":[0,0,0,0,0,0,0,0,0,0,0,0,0,0,0],"id":2,"left_children":[1,3,5,7,-1,9,-1,-1,11,-1,-1,-1,13,-1,-1],"loss_changes":[1.8866676E2,3.3494102E1,3.120079E0,1.763533E1,0E0,2.472824E0,0E0,0E0,1.4230465E1,0E0,0E0,0E0,1.542054E0,0E0,0E0],"parents":[2147483647,0,0,1,1,2,2,3,3,5,5,8,8,12,12],"right_children":[2,4,6,8,-1,10,-1,-1,12,-1,-1,-1,14,-1,-1],"split_conditions":[-7.2138864E-1,-7.0325536E-1,-9.401533E-1,1.0543496E-1,9.189634E-2,-1.0586023E0,1.1811602E-1,-2.837885E-1,-3.139006E-1,7.1581624E-2,-7.935421E-2,-1.870782E-1,-1.2955003E0,9.3967564E-2,-2.4322925E-2],"split_indices":[10,4,4,5,0,4,0,0,6,0,0,0,4,0,0],"split_type":[0,0,0,0,0,0,0,0,0,0,0,0,0,0,0],"sum_hessian":[9.660633E1,2.8366648E1,6.8239685E1,2.5136036E1,3.230611E0,2.357046E0,6.588264E1,1.6889389E1,8.246646E0,1.3071319E0,1.0499141E0,4.858209E0,3.388437E0,2.2335916E0,1.1548455E0],"tree_param":{"num_deleted":"0","num_feature":"11","num_nodes":"15","size_leaf_vector":"1"}},{"base_weights":[2.184881E-1,-1.6845766E0,1.1185943E-1,-1.999241E-1,-8.2681614E-1,5.1509418E-2,-1.1968656E0,-1.636532E0,-1.3096951E-1,-1.894337E-1,-2.2382332E-2,3.6680292E-2,-6.5685846E-2],"categories":[],"categories_nodes":[],"categories_segments":[],"categories_sizes":[],"default_left":[0,0,0,0,0,0,0,0,0,0,0,0,0],"id":3,"left_children":[1,3,-1,-1,5,-1,7,9,11,-1,-1,-1,-1],"loss_changes":[1.6820804E2,6.869911E0,0E0,0E0,5.6716914E0,0E0,3.6662464E0,1.6794224E0,1.1584888E0,0E0,0E0,0E0,0E0],"parents":[2147483647,0,0,1,1,4,4,6,6,7,7,8,8],"right_children":[2,4,-1,-1,6,-1,8,10,12,-1,-1,-1,-1],"split_conditions":[-7.2138864E-1,-2.2821538E-1,1.1185943E-1,-1.999241E-1,-3.1595495E-1,5.1509418E-2,5.295529E-1,-9.912476E-2,-1.5841545E-1,-1.894337E-1,-2.2382332E-2,3.6680292E-2,-6.5685846E-2],"split_indices":[10,6,0,0,3,0,8,3,2,0,0,0,0],"split_type":[0,0,0,0,0,0,0,0,0,0,0,0,0],"sum_hessian":[9.609722E1,3.0577242E1,6.551998E1,2.1397081E1,9.18016E0,1.8996168E0,7.2805424E0,4.7754016E0,2.5051408E0,3.7501178E0,1.0252837E0,1.4423832E0,1.0627576E0],"tree_param":{"num_deleted":"0","num_feature":"11","num_nodes":"13","size_leaf_vector":"1"}},{"base_weights":[2.3428693E-1,-1.338259E0,1.1401156E-1,-1.5408002E0,-8.332171E-2,-1.912454E0,-6.0261214E-1,-1.17099784E-1,8.644288E-2,-4.909788E-2,-1.974324E-1,4.8772267E-1,-1.7239875E0,-7.078401E-2,1.0443767E-1,-5.376313E-2,-1.9377892E-1],"categories":[],"categories_nodes":[],"categories_segments":[],"categories_sizes":[],"default_left":[0,0,0,0,0,0,0,0,0,0,0,0,0,0,0,0,0],"id":4,"left_children":[1,3,-1,5,7,9,11,-1,-1,-1,-1,13,15,-1,-1,-1,-1],"loss_changes":[1.3159126E2,8.471115E0,0E0,8.985069E0,6.9486814E0,8.216324E-1,1.2712378E1,0E0,0E0,0E0,0E0,4.534259E0,2.2821808E-1,0E0,0E0,0E0,0E0],"parents":[2147483647,0,0,1,1,3,3,4,4,5,5,6,6,11,11,12,12],"right_children":[2,4,-1,6,8,10,12,-1,-1,-1,-1,14,16,-1,-1,-1,-1],"split_conditions":[-7.0325536E-1,1.6737086E-1,1.1401156E-1,1.0543496E-1,-1.0980853E0,-1.4317418E0,-1.1770513E0,-1.17099784E-1,8.644288E-2,-4.909788E-2,-1.974324E-1,-2.8803033E-1,-1.0586023E0,-7.078401E-2,1.0443767E-1,-5.376313E-2,-1.9377892E-1],"split_indices":[4,1,0,5,4,5,4,0,0,0,0,9,4,0,0,0,0],"split_type":[0,0,0,0,0,0,0,0,0,0,0,0,0,0,0,0,0],"sum_hessian":[9.030882E1,3.2832764E1,5.7476055E1,2.807396E1,4.758804E0,1.9364466E1,8.709494E0,2.1061487E0,2.652655E0,1.1803908E0,1.8184076E1,4.702363E0,4.0071306E0,1.4075904E0,3.2947726E0,1.1485591E0,2.8585718E0],"tree_param":{"num_deleted":"0","num_feature":"11","num_nodes":"17","size_leaf_vector":"1"}},{"base_weights":[2.3389389E-1,-1.0163119E0,9.4532037E-1,-1.3793225E0,-2.1962315E-1,1.0346261E0,3.9623806E-1,-5.205726E-1,-1.5050675E0,-9.742714E-1,6.8980116E-1,1.9512078E-2,1.050133E0,-3.677269E-1,9.50154E-2,-1.0639008E-1,2.2583155E-2,-4.4416577E-2,-1.550729E-1,-1.4719962E-1,-5.2557394E-2,9.7234175E-2,-2.5503805E-2,2.4459176E-2,1.0670327E0,6.3898355E-2,-9.0719026E-1,4.2286452E-2,-5.482908E-2,1.0836454E-1,3.845456E-2,-1.5079138E-1,2.0612678E-2],"categories":[],"categories_nodes":[],"categories_segments":[],"categories_sizes":[],"default_left":[0,0,0,0,0,0,0,0,0,0,0,0,0,0,0,0,0,0,0,0,0,0,0,0,0,0,0,0,0,0,0,0,0],"id":5,"left_children":[1,3,5,7,9,11,13,15,17,19,21,-1,23,25,-1,-1,-1,-1,-1,-1,27,-1,-1,-1,29,-1,31,-1,-1,-1,-1,-1,-1],"loss_changes":[7.996921E1,9.153576E0,2.3916016E0,1.6216774E0,8.512696E0,4.2671967E-1,4.41739E0,2.013969E0,2.267685E-1,2.9771156E0,1.7873733E0,0E0,3.8444138E-1,3.1655326E0,0E0,0E0,0E0,0E0,0E0,0E0,1.0265014E0,0E0,0E0,0E0,1.06414795E-1,0E0,2.6605835E0,0E0,0E0,0E0,0E0,0E0,0E0],"parents":[2147483647,0,0,1,1,2,2,3,3,4,4,5,5,6,6,7,7,8,8,9,9,10,10,12,12,13,13,20,20,24,24,26,26],"right_children":[2,4,6,8,10,12,14,16,18,20,22,-1,24,26,-1,-1,-1,-1,-1,-1,28,-1,-1,-1,30,-1,32,-1,-1,-1,-1,-1,-1],"split_conditions":[-2.8744125E-1,1.0543496E-1,3.178564E-1,-4.327097E-1,-3.139006E-1,-1.177893E0,5.233181E-1,-1.3107685E0,-2.561502E0,8.703434E-1,9.64237E-1,1.9512078E-2,-1.5340712E0,-5.112315E-1,9.50154E-2,-1.0639008E-1,2.2583155E-2,-4.4416577E-2,-1.550729E-1,-1.4719962E-1,-7.4225336E-1,9.7234175E-2,-2.5503805E-2,2.4459176E-2,2.1067064E0,6.3898355E-2,-2.7885926E-1,4.2286452E-2,-5.482908E-2,1.0836454E-1,3.845456E-2,-1.5079138E-1,2.0612678E-2],"split_indices":[1,5,3,3,6,6,2,1,1,0,6,0,8,8,0,0,0,0,0,0,1,0,0,0,6,0,5,0,0,0,0,0,0],"split_type":[0,0,0,0,0,0,0,0,0,0,0,0,0,0,0,0,0,0,0,0,0,0,0,0,0,0,0,0,0,0,0,0,0],"sum_hessian":[8.78305E1,3.169812E1,5.6132378E1,2.1273533E1,1.0424588E1,4.751929E1,8.613086E0,3.3736653E0,1.7899866E1,5.6581225E0,4.7664657E0,1.1081691E0,4.641112E1,3.7614286E0,4.8516574E0,1.706262E0,1.6674033E0,1.1812807E0,1.6718586E1,3.2864316E0,2.371691E0,3.6468263E0,1.1196392E0,1.271615E0,4.5139507E1,1.248005E0,2.5134234E0,1.2856803E0,1.0860106E0,4.349304E1,1.6464676E0,1.4023243E0,1.1110991E0],"tree_param":{"num_deleted":"0","num_feature":"11","num_nodes":"33","size_leaf_vector":"1"}},{"base_weights":[1.7708012E-1,-1.206463E0,1.0931835E0,-1.3946061E0,8.5077845E-2,1.771758E-2,1.1088555E-1,-1.694808E0,-6.111129E-1,-1.8387799E-1,-6.9819766E-1,2.1736467E-1,-1.4217435E0,1.36963455E-2,-1.15890875E-1,-8.812382E-2,9.735321E-2,-1.6880384E-1,-5.1407527E-2],"categories":[],"categories_nodes":[],"categories_segments":[],"categories_sizes":[],"default_left":[0,0,0,0,0,0,0,0,0,0,0,0,0,0,0,0,0,0,0],"id":6,"left_children":[1,3,5,7,-1,-1,-1,9,11,-1,13,15,17,-1,-1,-1,-1,-1,-1],"loss_changes":[1.0682266E2,1.4205257E1,5.2999496E-1,6.30175E0,0E0,0E0,0E0,1.8714027E0,7.163083E0,0E0,1.8470478E0,5.7714043E0,4.111004E-1,0E0,0E0,0E0,0E0,0E0,0E0],"parents":[2147483647,0,0,1,1,2,2,3,3,7,7,8,8,10,10,11,11,12,12],"right_children":[2,4,6,8,-1,-1,-1,10,12,-1,14,16,18,-1,-1,-1,-1,-1,-1],"split_conditions":[-7.822213E-1,6.1936253E-1,-7.0325536E-1,1.0543496E-1,8.5077845E-2,1.771758E-2,1.1088555E-1,-9.2300534E-1,-1.1770513E0,-1.8387799E-1,-9.796363E-1,-5.35254E-1,-1.0238137E0,1.36963455E-2,-1.15890875E-1,-8.812382E-2,9.735321E-2,-1.6880384E-1,-5.1407527E-2],"split_indices":[4,10,4,5,0,0,0,10,4,0,4,6,10,0,0,0,0,0,0],"split_type":[0,0,0,0,0,0,0,0,0,0,0,0,0,0,0,0,0,0,0],"sum_hessian":[8.223976E1,3.263535E1,4.9604412E1,3.0195908E1,2.4394405E0,1.0413928E0,4.856302E1,2.0990198E1,9.20571E0,1.7602308E1,3.3878896E0,4.914683E0,4.2910275E0,1.4542993E0,1.9335904E0,1.9362249E0,2.9784582E0,2.652945E0,1.6380826E0],"tree_param":{"num_deleted":"0","num_feature":"11","num_nodes":"19","size_leaf_vector":"1"}},{"base_weights":[1.2809302E-1,-1.0941122E0,1.0922934E-1,-1.3217838E0,-1.1714909E-1,-1.5512085E-1,-7.2064453E-1,-8.959313E-1,6.9835854E-1,-1.0336351E-1,-1.6201125E-1,-2.6834533E-3,-1.24599434E-1,8.205541E-2,1.59008E-2,-6.92545E-1,8.422326E-2,-1.2128051E-1,2.1892654E-2],"categories":[],"categories_nodes":[],"categories_segments":[],"categories_sizes":[],"default_left":[0,0,0,0,0,0,0,0,0,0,0,0,0,0,0,0,0,0,0],"id":7,"left_children":[1,3,-1,5,7,-1,9,11,13,15,-1,-1,-1,-1,-1,17,-1,-1,-1],"loss_changes":[9.4989624E1,7.763382E0,0E0,2.8505096E0,5.595599E0,0E0,5.282506E0,1.3176444E0,1.5849257E-1,4.4214168E0,0E0,0E0,0E0,0E0,0E0,2.5384874E0,0E0,0E0,0E0],"parents":[2147483647,0,0,1,1,3,3,4,4,6,6,7,7,8,8,9,9,15,15],"right_children":[2,4,-1,6,8,-1,10,12,14,16,-1,-1,-1,-1,-1,18,-1,-1,-1],"split_conditions":[-7.0325536E-1,-2.8744125E-1,1.0922934E-1,1.0543496E-1,-1.0191194E0,-1.5512085E-1,-1.0586023E0,3.947769E-1,2.20048E-1,-3.139006E-1,-1.6201125E-1,-2.6834533E-3,-1.24599434E-1,8.205541E-2,1.59008E-2,8.703434E-1,8.422326E-2,-1.2128051E-1,2.1892654E-2],"split_indices":[4,1,0,5,4,0,4,1,7,6,0,0,0,0,0,0,0,0,0],"split_type":[0,0,0,0,0,0,0,0,0,0,0,0,0,0,0,0,0,0,0],"sum_hessian":[7.859139E1,3.4599228E1,4.399217E1,2.7773851E1,6.8253756E0,1.8958061E1,8.815789E0,3.4408562E0,3.3845193E0,5.889143E0,2.9266465E0,1.2971343E0,2.143722E0,2.3342876E0,1.0502318E0,3.7932544E0,2.0958886E0,2.2044003E0,1.5888541E0],"tree_param":{"num_deleted":"0","num_feature":"11","num_nodes":"19","size_leaf_vector":"1"}},{"base_weights":[1.8447632E-1,-1.0048497E0,1.0236001E0,-1.1604235E0,7.758511E-2,1.6700345E-1,1.0783827E-1,-1.3770816E0,-1.7994368E-1,-7.1108006E-2,7.659804E-2,-1.5417157E-1,-3.625227E-1,5.575888E-1,-1.00320674E-1,9.968613E-2,-1.2769274E-1,2.395393E-3,7.742382E-2],"categories":[],"categories_nodes":[],"categories_segments":[],"categories_sizes":[],"default_left":[0,0,0,0,0,0,0,0,0,0,0,0,0,0,0,0,0,0,0],"id":8,"left_children":[1,3,5,7,-1,9,-1,11,13,-1,-1,-1,15,17,-1,-1,-1,-1,-1],"loss_changes":[7.555907E1,9.598587E0,1.8979225E0,5.9713135E0,0E0,2.5669718E0,0E0,3.4210167E0,4.4749303E0,0E0,0E0,0E0,7.033265E0,4.4901252E-1,0E0,0E0,0E0,0E0,0E0],"parents":[2147483647,0,0,1,1,2,2,3,3,5,5,7,7,8,8,12,12,13,13],"right_children":[2,4,6,8,-1,10,-1,12,14,-1,-1,-1,16,18,-1,-1,-1,-1,-1],"split_conditions":[-7.2138864E-1,-7.0325536E-1,-9.401533E-1,4.8972917E-1,7.758511E-2,6.1936253E-1,1.0783827E-1,-9.2300534E-1,-1.1770513E0,-7.1108006E-2,7.659804E-2,-1.5417157E-1,-1.1375684E0,-3.2104102E-1,-1.00320674E-1,9.968613E-2,-1.2769274E-1,2.395393E-3,7.742382E-2],"split_indices":[10,4,4,5,0,10,0,10,4,0,0,0,4,6,0,0,0,0,0],"split_type":[0,0,0,0,0,0,0,0,0,0,0,0,0,0,0,0,0,0,0],"sum_hessian":[7.368048E1,3.0398249E1,4.3282234E1,2.8276186E1,2.1220622E0,2.8450258E0,4.0437206E1,2.2827469E1,5.448717E0,1.0778177E0,1.7672082E0,1.9193342E1,3.6341276E0,3.0442178E0,2.4044993E0,1.4252014E0,2.2089262E0,1.19972E0,1.8444978E0],"tree_param":{"num_deleted":"0","num_feature":"11","num_nodes":"19","size_leaf_vector":"1"}},{"base_weights":[1.4350039E-1,-1.066355E0,1.0090232E0,-1.2182254E0,7.455189E-2,1.6496179E-1,1.0662867E-1,-1.302321E0,3.768884E-2,7.478402E-2,-6.552978E-2,-4.5653717E-3,-1.3794434E0,-1.4808123E-1,-6.701963E-1,-1.7018842E-4,-1.1279271E-1],"categories":[],"categories_nodes":[],"categories_segments":[],"categories_sizes":[],"default_left":[0,0,0,0,0,0,0,0,0,0,0,0,0,0,0,0,0],"id":9,"left_children":[1,3,5,7,-1,9,-1,11,-1,-1,-1,-1,13,-1,15,-1,-1],"loss_changes":[7.4622406E1,9.101933E0,1.8278961E0,4.227192E0,0E0,2.3149672E0,0E0,2.5230904E0,0E0,0E0,0E0,0E0,8.1258774E-1,0E0,1.5177329E0,0E0,0E0],"parents":[2147483647,0,0,1,1,2,2,3,3,5,5,7,7,12,12,14,14],"right_children":[2,4,6,8,-1,10,-1,12,-1,-1,-1,-1,14,-1,16,-1,-1],"split_conditions":[-7.2138864E-1,-7.0325536E-1,-9.401533E-1,1.3351765E0,7.455189E-2,-3.9244536E-1,1.0662867E-1,-1.4892099E0,3.768884E-2,7.478402E-2,-6.552978E-2,-4.5653717E-3,4.8972917E-1,-1.4808123E-1,-1.2560173E0,-1.7018842E-4,-1.1279271E-1],"split_indices":[10,4,4,5,0,6,0,8,0,0,0,0,5,0,4,0,0],"split_type":[0,0,0,0,0,0,0,0,0,0,0,0,0,0,0,0,0],"sum_hessian":[6.9234344E1,2.877696E1,4.0457386E1,2.6853737E1,1.9232229E0,2.8169112E0,3.7640476E1,2.5683252E1,1.1704854E0,1.6983488E0,1.1185625E0,1.577108E0,2.4106144E1,2.0139805E1,3.9663384E0,2.019976E0,1.9463625E0],"tree_param":{"num_deleted":"0","num_feature":"11","num_nodes":"17","size_leaf_vector":"1"}},{"base_weights":[1.6035761E-1,-9.4293004E-1,1.0399592E-1,-1.1098049E0,7.855528E-2,-1.2318294E0,-3.1217876E-1,-1.3093028E0,8.520366E-3,1.0259302E-1,-1.1828537E-1,-1.3602158E-1,-2.6999203E-2],"categories":[],"categories_nodes":[],"categories_segments":[],"categories_sizes":[],"default_left":[0,0,0,0,0,0,0,0,0,0,0,0,0],"id":10,"left_children":[1,3,-1,5,-1,7,9,11,-1,-1,-1,-1,-1],"loss_changes":[6.762111E1,9.809408E0,0E0,2.4061203E0,0E0,2.614315E0,7.206419E0,8.617859E-1,0E0,0E0,0E0,0E0,0E0],"parents":[2147483647,0,0,1,1,3,3,5,5,6,6,7,7],"right_children":[2,4,-1,6,-1,8,10,12,-1,-1,-1,-1,-1],"split_conditions":[-7.2138864E-1,-7.0325536E-1,1.0399592E-1,-9.2300534E-1,7.855528E-2,1.3351765E0,-1.0586023E0,8.7781954E-1,8.520366E-3,1.0259302E-1,-1.1828537E-1,-1.3602158E-1,-2.6999203E-2],"split_indices":[10,4,0,10,0,5,4,2,0,0,0,0,0],"split_type":[0,0,0,0,0,0,0,0,0,0,0,0,0],"sum_hessian":[6.766944E1,2.9985952E1,3.768349E1,2.7672287E1,2.3136644E0,2.3528427E1,4.1438594E0,2.2226824E1,1.3016038E0,1.5631676E0,2.5806916E0,2.0894493E1,1.3323312E0],"tree_param":{"num_deleted":"0","num_feature":"11","num_nodes":"13","size_leaf_vector":"1"}},{"base_weights":[1.771734E-1,-7.9033405E-1,9.956355E-1,-1.1525017E0,-6.719695E-2,1.7973056E-2,1.0183573E0,-1.3179062E-1,-2.015782E-1,-3.009453E-1,6.5116145E-2,3.5578724E-2,1.0461191E-1,6.6206776E-2,-9.377711E-2,-5.4861754E-1,7.3755E-2,-7.507788E-1,3.861697E-2,-1.1365546E-1,-1.6806131E-2],"categories":[],"categories_nodes":[],"categories_segments":[],"categories_sizes":[],"default_left":[0,0,0,0,0,0,0,0,0,0,0,0,0,0,0,0,0,0,0,0,0],"id":11,"left_children":[1,3,5,7,9,-1,11,-1,13,15,-1,-1,-1,-1,-1,17,-1,19,-1,-1,-1],"loss_changes":[4.9055096E1,7.3843784E0,4.3733978E-1,2.7105083E0,1.9707514E0,0E0,2.2271347E-1,0E0,3.154062E0,2.6316738E0,0E0,0E0,0E0,0E0,0E0,1.7194836E0,0E0,1.283498E0,0E0,0E0,0E0],"parents":[2147483647,0,0,1,1,2,2,3,3,4,4,6,6,8,8,9,9,15,15,17,17],"right_children":[2,4,6,8,10,-1,12,-1,14,16,-1,-1,-1,-1,-1,18,-1,20,-1,-1,-1],"split_conditions":[-7.2138864E-1,1.0543496E-1,-1.9929867E0,-9.2300534E-1,2.3017268E-1,1.7973056E-2,-7.646762E-1,-1.3179062E-1,-2.4923798E-1,5.987881E-1,6.5116145E-2,3.5578724E-2,1.0461191E-1,6.6206776E-2,-9.377711E-2,-1.0238137E0,7.3755E-2,-2.6072112E-1,3.861697E-2,-1.1365546E-1,-1.6806131E-2],"split_indices":[10,5,1,10,2,0,7,0,3,7,0,0,0,0,0,10,0,9,0,0,0],"split_type":[0,0,0,0,0,0,0,0,0,0,0,0,0,0,0,0,0,0,0,0,0],"sum_hessian":[5.995485E1,2.7491453E1,3.2463394E1,1.7921902E1,9.569552E0,1.1209725E0,3.1342422E1,1.4937702E1,2.9842E0,7.658575E0,1.9109771E0,1.8160429E0,2.952638E1,1.4195629E0,1.564637E0,6.5646753E0,1.0938996E0,5.559252E0,1.0054234E0,2.773004E0,2.7862477E0],"tree_param":{"num_deleted":"0","num_feature":"11","num_nodes":"21","size_leaf_vector":"1"}},{"base_weights":[8.723781E-2,-8.1320643E-1,9.836896E-2,-1.1103963E0,-2.508452E-1,-1.2791438E-1,-1.4736106E-1,-8.771367E-1,1.8933746E-1,5.27843E-2,-8.91494E-2,-1.0722762E-1,-2.1666633E-2,7.4426666E-2,-1.810167E-1,-7.288902E-2,1.8847562E-1,4.6862423E-2,-1.21822255E-2],"categories":[],"categories_nodes":[],"categories_segments":[],"categories_sizes":[],"default_left":[0,0,0,0,0,0,0,0,0,0,0,0,0,0,0,0,0,0,0],"id":12,"left_children":[1,3,-1,5,7,-1,9,11,13,-1,-1,-1,-1,-1,15,-1,17,-1,-1],"loss_changes":[5.069636E1,4.9668903E0,0E0,3.1010685E0,3.513809E0,0E0,2.554847E0,4.3654132E-1,1.7693815E0,0E0,0E0,0E0,0E0,0E0,1.2658613E0,0E0,4.15569E-1,0E0,0E0],"parents":[2147483647,0,0,1,1,3,3,4,4,6,6,7,7,8,8,14,14,16,16],"right_children":[2,4,-1,6,8,-1,10,12,14,-1,-1,-1,-1,-1,16,-1,18,-1,-1],"split_conditions":[-7.2138864E-1,1.0543496E-1,9.836896E-2,-9.2300534E-1,-2.8803033E-1,-1.2791438E-1,-2.7090147E-1,8.703434E-1,5.66588E-1,5.27843E-2,-8.91494E-2,-1.0722762E-1,-2.1666633E-2,7.4426666E-2,7.9872125E-1,-7.288902E-2,-2.0610268E-1,4.6862423E-2,-1.21822255E-2],"split_indices":[10,5,0,10,9,0,2,0,5,0,0,0,0,0,8,0,9,0,0],"split_type":[0,0,0,0,0,0,0,0,0,0,0,0,0,0,0,0,0,0,0],"sum_hessian":[6.0813828E1,3.0385681E1,3.0428148E1,1.9242247E1,1.1143434E1,1.6093946E1,3.1482995E0,4.1896863E0,6.9537477E0,1.8029848E0,1.3453146E0,2.7528408E0,1.4368455E0,2.379203E0,4.5745444E0,1.4507419E0,3.1238027E0,1.373508E0,1.7502947E0],"tree_param":{"num_deleted":"0","num_feature":"11","num_nodes":"19","size_leaf_vector":"1"}},{"base_weights":[1.4819661E-1,-7.575139E-1,1.02831006E-1,-8.637316E-1,6.662991E-2,-1.1045815E0,-4.5947114E-1,-1.186495E-1,-2.1326056E-2,6.261698E-2,-1.2381332E-1,-4.0186632E-1,5.167622E-1,-8.695135E-2,3.3157673E-3,6.934191E-2,1.2890317E-3],"categories":[],"categories_nodes":[],"categories_segments":[],"categories_sizes":[],"default_left":[0,0,0,0,0,0,0,0,0,0,0,0,0,0,0,0,0],"id":13,"left_children":[1,3,-1,5,-1,7,9,-1,-1,11,-1,13,15,-1,-1,-1,-1],"loss_changes":[4.404567E1,4.7081213E0,0E0,2.0107918E0,0E0,8.7833214E-1,4.6992183E0,0E0,0E0,1.8440396E0,0E0,9.234668E-1,3.7913978E-1,0E0,0E0,0E0,0E0],"parents":[2147483647,0,0,1,1,3,3,5,5,6,6,9,9,11,11,12,12],"right_children":[2,4,-1,6,-1,8,10,-1,-1,12,-1,14,16,-1,-1,-1,-1],"split_conditions":[-7.0325536E-1,6.1936253E-1,1.02831006E-1,1.0543496E-1,6.662991E-2,1.6737086E-1,-1.0586023E0,-1.186495E-1,-2.1326056E-2,8.703434E-1,-1.2381332E-1,-1.4270471E0,-6.2855035E-1,-8.695135E-2,3.3157673E-3,6.934191E-2,1.2890317E-3],"split_indices":[4,10,0,5,0,1,4,0,0,0,0,10,1,0,0,0,0],"split_type":[0,0,0,0,0,0,0,0,0,0,0,0,0,0,0,0,0],"sum_hessian":[5.3278244E1,2.6325943E1,2.6952301E1,2.4864403E1,1.4615397E0,1.4495776E1,1.0368626E1,1.2972429E1,1.5233473E0,6.757409E0,3.611217E0,3.3975909E0,3.3598182E0,1.1560622E0,2.2415285E0,2.2091212E0,1.1506968E0],"tree_param":{"num_deleted":"0","num_feature":"11","num_nodes":"17","size_leaf_vector":"1"}},{"base_weights":[1.5642346E-1,-6.5529716E-1,1.01738095E-1,-9.5049214E-1,8.4857434E-2,-1.217614E-1,-3.9592975E-1,1.0468856E-1,-5.168262E-1,7.150855E-2,-6.926576E-1,-9.752456E-2,1.9651796E-1,-9.85491E-2,-1.6525242E-1,-2.9857678E-2,5.7537537E-2,3.877076E-2,-6.794813E-2],"categories":[],"categories_nodes":[],"categories_segments":[],"categories_sizes":[],"default_left":[0,0,0,0,0,0,0,0,0,0,0,0,0,0,0,0,0,0,0],"id":14,"left_children":[1,3,-1,5,7,-1,9,-1,11,-1,13,-1,15,-1,17,-1,-1,-1,-1],"loss_changes":[3.6305744E1,5.948619E0,0E0,2.3741894E0,5.5048013E0,0E0,3.0502758E0,0E0,2.1358109E0,0E0,8.6024165E-1,0E0,7.641775E-1,0E0,1.2775595E0,0E0,0E0,0E0,0E0],"parents":[2147483647,0,0,1,1,3,3,4,4,6,6,8,8,10,10,12,12,14,14],"right_children":[2,4,-1,6,8,-1,10,-1,12,-1,14,-1,16,-1,18,-1,-1,-1,-1],"split_conditions":[-7.0325536E-1,-9.2300534E-1,1.01738095E-1,1.0543496E-1,-1.0586023E0,-1.217614E-1,-1.6508473E0,1.0468856E-1,-2.576702E-1,7.150855E-2,-2.6072112E-1,-9.752456E-2,-9.0067035E-1,-9.85491E-2,-1.1770513E0,-2.9857678E-2,5.7537537E-2,3.877076E-2,-6.794813E-2],"split_indices":[4,10,0,5,4,0,4,0,10,0,9,0,4,0,4,0,0,0,0],"split_type":[0,0,0,0,0,0,0,0,0,0,0,0,0,0,0,0,0,0,0],"sum_hessian":[4.9996212E1,2.5856901E1,2.413931E1,1.8281523E1,7.5753784E0,1.1531429E1,6.7500944E0,2.6301389E0,4.9452395E0,1.1256194E0,5.624475E0,2.7870438E0,2.1581957E0,3.058002E0,2.5664728E0,1.027435E0,1.1307607E0,1.3552201E0,1.2112528E0],"tree_param":{"num_deleted":"0","num_feature":"11","num_nodes":"19","size_leaf_vector":"1"}},{"base_weights":[1.6135837E-1,-6.043132E-1,9.100357E-1,-9.1138494E-1,-9.3307056E-2,-2.0495525E-2,9.7381955E-1,-1.1104324E-1,1.8238908E-2,-5.494011E-1,3.0631924E-1,2.149814E-2,1.01022564E-1,6.9275714E-2,-7.6080136E-2,-8.786108E-2,2.0849355E-2,6.223841E-1,-3.348062E-2,-1.2646593E-2,8.968275E-2],"categories":[],"categories_nodes":[],"categories_segments":[],"categories_sizes":[],"default_left":[0,0,0,0,0,0,0,0,0,0,0,0,0,0,0,0,0,0,0,0,0],"id":15,"left_children":[1,3,5,7,9,-1,11,-1,13,15,17,-1,-1,-1,-1,-1,-1,19,-1,-1,-1],"loss_changes":[2.8771776E1,3.8285494E0,1.99827E0,2.8818827E0,2.0776775E0,0E0,4.4852638E-1,0E0,2.4771874E0,1.4931428E0,1.4699055E0,0E0,0E0,0E0,0E0,0E0,0E0,1.0422823E0,0E0,0E0,0E0],"parents":[2147483647,0,0,1,1,2,2,3,3,4,4,6,6,8,8,9,9,10,10,17,17],"right_children":[2,4,6,8,10,-1,12,-1,14,16,18,-1,-1,-1,-1,-1,-1,20,-1,-1,-1],"split_conditions":[-7.2138864E-1,1.0543496E-1,-1.4244716E0,-9.2300534E-1,-3.9244536E-1,-2.0495525E-2,-7.646762E-1,-1.1104324E-1,-2.4923798E-1,-9.912476E-2,9.64237E-1,2.149814E-2,1.01022564E-1,6.9275714E-2,-7.6080136E-2,-8.786108E-2,2.0849355E-2,-4.992822E-1,-3.348062E-2,-1.2646593E-2,8.968275E-2],"split_indices":[10,5,1,10,6,0,7,0,3,3,6,0,0,0,0,0,0,2,0,0,0],"split_type":[0,0,0,0,0,0,0,0,0,0,0,0,0,0,0,0,0,0,0,0,0],"sum_hessian":[4.823206E1,2.394073E1,2.4291332E1,1.446498E1,9.475749E0,1.1946495E0,2.3096682E1,1.1753804E1,2.711176E0,4.250201E0,5.225548E0,1.3734758E0,2.1723206E1,1.512425E0,1.1987509E0,2.8520615E0,1.3981395E0,3.519648E0,1.7058995E0,1.0885656E0,2.4310825E0],"tree_param":{"num_deleted":"0","num_feature":"11","num_nodes":"21","size_leaf_vector":"1"}},{"base_weights":[1.2020264E-1,-6.630467E-1,9.800192E-2,-7.656469E-1,6.228852E-2,-1.0038031E0,-2.9310396E-1,-1.1401357E-1,-3.6062822E-1,2.1151261E-1,-1.07467555E-1,3.7569158E-2,-8.015982E-2,-4.7650564E-2,6.291335E-1,2.1548083E-2,7.7897824E-2],"categories":[],"categories_nodes":[],"categories_segments":[],"categories_sizes":[],"default_left":[0,0,0,0,0,0,0,0,0,0,0,0,0,0,0,0,0],"id":16,"left_children":[1,3,-1,5,-1,7,9,-1,11,13,-1,-1,-1,-1,15,-1,-1],"loss_changes":[3.0789553E1,3.6455507E0,0E0,2.2593298E0,0E0,8.755665E-1,3.783156E0,0E0,1.6093879E0,2.1140637E0,0E0,0E0,0E0,0E0,1.024071E-1,0E0,0E0],"parents":[2147483647,0,0,1,1,3,3,5,5,6,6,8,8,9,9,14,14],"right_children":[2,4,-1,6,-1,8,10,-1,12,14,-1,-1,-1,-1,16,-1,-1],"split_conditions":[-7.822213E-1,6.1936253E-1,9.800192E-2,1.0543496E-1,6.228852E-2,-9.2300534E-1,-1.0586023E0,-1.1401357E-1,-3.1595495E-1,-2.8803033E-1,-1.07467555E-1,3.7569158E-2,-8.015982E-2,-4.7650564E-2,-3.2104102E-1,2.1548083E-2,7.7897824E-2],"split_indices":[4,10,0,5,0,10,4,0,3,9,0,0,0,0,6,0,0],"split_type":[0,0,0,0,0,0,0,0,0,0,0,0,0,0,0,0,0],"sum_hessian":[4.375421E1,2.301634E1,2.0737871E1,2.1690338E1,1.326001E0,1.3674358E1,8.015981E0,1.064524E1,3.0291185E0,5.314247E0,2.7017334E0,1.1900457E0,1.8390727E0,1.9540336E0,3.3602135E0,1.5418628E0,1.8183506E0],"tree_param":{"num_deleted":"0","num_feature":"11","num_nodes":"17","size_leaf_vector":"1"}},{"base_weights":[9.938783E-2,-7.1782154E-1,9.9371664E-2,-8.2405E-1,-1.2736201E-1,1.738487E-2,-8.9478195E-1,-6.0147267E-2,4.3567244E-2,-6.0316366E-1,-1.1643501E-1,-9.9383436E-2,1.0630189E-1,-4.8322707E-2,7.5657934E-2],"categories":[],"categories_nodes":[],"categories_segments":[],"categories_sizes":[],"default_left":[0,0,0,0,0,0,0,0,0,0,0,0,0,0,0],"id":17,"left_children":[1,3,-1,5,7,-1,9,-1,-1,11,-1,-1,13,-1,-1],"loss_changes":[3.0855251E1,1.2831707E0,0E0,1.4665394E0,1.478556E0,0E0,6.739397E-1,0E0,0E0,3.0115528E0,0E0,0E0,2.1391897E0,0E0,0E0],"parents":[2147483647,0,0,1,1,3,3,4,4,6,6,9,9,12,12],"right_children":[2,4,-1,6,8,-1,10,-1,-1,12,-1,-1,14,-1,-1],"split_conditions":[-7.0325536E-1,1.6737086E-1,9.9371664E-2,-1.3546257E0,-1.0980853E0,1.738487E-2,-1.2165343E0,-6.0147267E-2,4.3567244E-2,-4.638497E-1,-1.1643501E-1,-9.9383436E-2,3.3601147E-1,-4.8322707E-2,7.5657934E-2],"split_indices":[4,1,0,8,4,0,4,0,0,6,0,0,5,0,0],"split_type":[0,0,0,0,0,0,0,0,0,0,0,0,0,0,0],"sum_hessian":[4.024209E1,2.1130796E1,1.9111294E1,1.7573563E1,3.5572345E0,1.0666873E0,1.6506876E1,1.8940526E0,1.6631819E0,9.4843E0,7.022576E0,5.8578334E0,3.6264663E0,2.0368176E0,1.5896486E0],"tree_param":{"num_deleted":"0","num_feature":"11","num_nodes":"15","size_leaf_vector":"1"}},{"base_weights":[1.1590074E-1,-5.847112E-1,9.854939E-2,-8.507722E-1,1.0695471E-1,-1.10818975E-1,-3.7253988E-1,8.954048E-2,-3.9152175E-1,1.2188644E-1,-9.097291E-2,-7.6443546E-2,1.520812E-2,-4.5679938E-2,4.2554474E-1,2.2174255E-3,7.366383E-2],"categories":[],"categories_nodes":[],"categories_segments":[],"categories_sizes":[],"default_left":[0,0,0,0,0,0,0,0,0,0,0,0,0,0,0,0,0],"id":18,"left_children":[1,3,-1,5,7,-1,9,-1,11,13,-1,-1,-1,-1,15,-1,-1],"loss_changes":[2.5395561E1,4.3582683E0,0E0,1.6625032E0,3.2315142E0,0E0,2.077773E0,0E0,1.1676886E0,1.0269731E0,0E0,0E0,0E0,0E0,4.3857336E-1,0E0,0E0],"parents":[2147483647,0,0,1,1,3,3,4,4,6,6,8,8,9,9,14,14],"right_children":[2,4,-1,6,8,-1,10,-1,12,14,-1,-1,-1,-1,16,-1,-1],"split_conditions":[-7.0325536E-1,-1.0238137E0,9.854939E-2,1.0543496E-1,-1.0586023E0,-1.10818975E-1,-1.1770513E0,8.954048E-2,-2.576702E-1,-1.4270471E0,-9.097291E-2,-7.6443546E-2,1.520812E-2,-4.5679938E-2,1.4429997E-1,2.2174255E-3,7.366383E-2],"split_indices":[4,10,0,5,4,0,4,0,10,10,0,0,0,0,7,0,0],"split_type":[0,0,0,0,0,0,0,0,0,0,0,0,0,0,0,0,0],"sum_hessian":[3.9737698E1,2.218851E1,1.7549189E1,1.585831E1,6.330201E0,9.452866E0,6.405444E0,2.1435006E0,4.186701E0,3.7380574E0,2.6673868E0,2.242262E0,1.9444387E0,1.1128889E0,2.6251686E0,1.6095153E0,1.0156531E0],"tree_param":{"num_deleted":"0","num_feature":"11","num_nodes":"17","size_leaf_vector":"1"}},{"base_weights":[4.6891842E-2,-6.422817E-1,9.753742E-2,-7.436004E-1,6.0319263E-2,-9.617076E-1,-3.6641985E-1,-1.0839087E-1,-4.0555316E-1,4.039732E-2,-9.497331E-2,1.2142721E-2,-6.628057E-2,-6.664821E-2,5.1644737E-1,7.107979E-2,-6.0859458E-3],"categories":[],"categories_nodes":[],"categories_segments":[],"categories_sizes":[],"default_left":[0,0,0,0,0,0,0,0,0,0,0,0,0,0,0,0,0],"id":19,"left_children":[1,3,-1,5,-1,7,9,-1,11,13,-1,-1,-1,-1,15,-1,-1],"loss_changes":[2.4980906E1,3.281312E0,0E0,1.392271E0,0E0,4.3182278E-1,2.2656295E0,0E0,6.102261E-1,2.527689E0,0E0,0E0,0E0,0E0,5.415163E-1,0E0,0E0],"parents":[2147483647,0,0,1,1,3,3,5,5,6,6,8,8,9,9,14,14],"right_children":[2,4,-1,6,-1,8,10,-1,12,14,-1,-1,-1,-1,16,-1,-1],"split_conditions":[-7.0325536E-1,6.1936253E-1,9.753742E-2,1.0543496E-1,6.0319263E-2,-9.2300534E-1,-1.0586023E0,-1.0839087E-1,-1.6584174E-1,-2.8803033E-1,-9.497331E-2,1.2142721E-2,-6.628057E-2,-6.664821E-2,9.66254E-1,7.107979E-2,-6.0859458E-3],"split_indices":[4,10,0,5,0,10,4,0,3,9,0,0,0,0,5,0,0],"split_type":[0,0,0,0,0,0,0,0,0,0,0,0,0,0,0,0,0],"sum_hessian":[3.7060627E1,2.144853E1,1.56121E1,2.020761E1,1.2409209E0,1.1821829E1,8.385779E0,8.914218E0,2.9076114E0,5.4886227E0,2.897157E0,1.1269811E0,1.7806301E0,2.0478203E0,3.4408023E0,2.4012048E0,1.0395974E0],"tree_param":{"num_deleted":"0","num_feature":"11","num_nodes":"17","size_leaf_vector":"1"}},{"base_weights":[1.1222117E-1,-4.8121122E-1,9.6770726E-2,-7.2982055E-1,-2.7124397E-2,-1.9654213E-2,-7.9504293E-1,3.1945583E-1,-6.514787E-1,-1.618682E-2,-8.4275454E-1,-4.357177E-1,7.9344034E-2,-1.5321343E-2,-8.1695355E-2,-9.064571E-1,-1.4897925E-2,-6.814416E-2,2.404798E-3,-3.600584E-2,-1.0198392E-1],"categories":[],"categories_nodes":[],"categories_segments":[],"categories_sizes":[],"default_left":[0,0,0,0,0,0,0,0,0,0,0,0,0,0,0,0,0,0,0,0,0],"id":20,"left_children":[1,3,-1,5,7,-1,9,11,13,-1,15,17,-1,-1,-1,19,-1,-1,-1,-1,-1],"loss_changes":[1.9357798E1,2.5360026E0,0E0,3.5125113E-1,2.1660862E0,0E0,2.4642754E-1,2.6685677E0,1.6826308E-1,0E0,3.752823E-1,3.720308E-1,0E0,0E0,0E0,2.7581406E-1,0E0,0E0,0E0,0E0,0E0],"parents":[2147483647,0,0,1,1,3,3,4,4,6,6,7,7,8,8,10,10,11,11,15,15],"right_children":[2,4,-1,6,8,-1,10,12,14,-1,16,18,-1,-1,-1,20,-1,-1,-1,-1,-1],"split_conditions":[-7.0325536E-1,1.0543496E-1,9.6770726E-2,-7.5834095E-1,-1.0586023E0,-1.9654213E-2,-1.4317418E0,-2.8803033E-1,-6.0665834E-1,-1.618682E-2,-8.217043E-1,-1.4534323E0,7.9344034E-2,-1.5321343E-2,-8.1695355E-2,-3.4264877E-1,-1.4897925E-2,-6.814416E-2,2.404798E-3,-3.600584E-2,-1.0198392E-1],"split_indices":[4,5,0,2,4,0,5,9,6,0,4,4,0,0,0,9,0,0,0,0,0],"split_type":[0,0,0,0,0,0,0,0,0,0,0,0,0,0,0,0,0,0,0,0,0],"sum_hessian":[3.621317E1,2.1639683E1,1.4573486E1,1.359131E1,8.048374E0,1.9184971E0,1.1672812E1,5.48949E0,2.558884E0,1.1257508E0,1.0547062E1,2.1479743E0,3.3415155E0,1.1180869E0,1.440797E0,9.379295E0,1.1677659E0,1.0856136E0,1.0623608E0,2.3293867E0,7.049909E0],"tree_param":{"num_deleted":"0","num_feature":"11","num_nodes":"21","size_leaf_vector":"1"}},{"base_weights":[1.0080904E-1,-5.0198126E-1,9.593077E-2,5.166154E-2,-5.864849E-1,-7.1381044E-1,1.4126235E-1,-9.3269295E-1,-1.9162606E-1,-3.406238E-2,6.0881693E-2,-2.403243E-2,-9.766566E-1,4.1601706E-1,-7.814602E-2,-4.291935E-2,-1.0697472E-1,7.0705772E-3,5.809803E-2],"categories":[],"categories_nodes":[],"categories_segments":[],"categories_sizes":[],"default_left":[0,0,0,0,0,0,0,0,0,0,0,0,0,0,0,0,0,0,0],"id":21,"left_children":[1,3,-1,-1,5,7,9,11,13,-1,-1,-1,15,17,-1,-1,-1,-1,-1],"loss_changes":[1.8123089E1,2.083393E0,0E0,0E0,1.9140315E0,1.7436914E0,1.0519688E0,1.1816883E-1,2.556701E0,0E0,0E0,0E0,7.978821E-2,1.7079747E-1,0E0,0E0,0E0,0E0,0E0],"parents":[2147483647,0,0,1,1,4,4,5,5,6,6,7,7,8,8,12,12,13,13],"right_children":[2,4,-1,-1,6,8,10,12,14,-1,-1,-1,16,18,-1,-1,-1,-1,-1],"split_conditions":[-7.0325536E-1,-1.4892099E0,9.593077E-2,5.166154E-2,1.6737086E-1,7.9872125E-1,-1.0980853E0,-9.6286106E-1,-1.1770513E0,-3.406238E-2,6.0881693E-2,-2.403243E-2,-1.5718813E0,8.703434E-1,-7.814602E-2,-4.291935E-2,-1.0697472E-1,7.0705772E-3,5.809803E-2],"split_indices":[4,8,0,0,1,8,4,2,4,0,0,0,4,0,0,0,0,0,0],"split_type":[0,0,0,0,0,0,0,0,0,0,0,0,0,0,0,0,0,0,0],"sum_hessian":[3.309028E1,1.9684317E1,1.340596E1,1.1162041E0,1.8568113E1,1.5819507E1,2.748606E0,1.0593094E1,5.226413E0,1.4872483E0,1.2613577E0,1.0185616E0,9.5745325E0,2.7194953E0,2.5069175E0,2.2068143E0,7.367718E0,1.3410151E0,1.3784802E0],"tree_param":{"num_deleted":"0","num_feature":"11","num_nodes":"19","size_leaf_vector":"1"}},{"base_weights":[6.870569E-2,-5.182171E-1,9.480521E-2,-6.6718394E-1,7.626963E-2,-2.3901181E-1,-1.0701404E-1,4.9637467E-2,-3.805762E-2,-5.608672E-1,2.1078978E-1,-2.4416924E-1,-7.464918E-2,-5.7824224E-2,8.0722354E-2,-4.476186E-2,1.1398724E-2],"categories":[],"categories_nodes":[],"categories_segments":[],"categories_sizes":[],"default_left":[0,0,0,0,0,0,0,0,0,0,0,0,0,0,0,0,0],"id":22,"left_children":[1,3,-1,5,7,9,-1,-1,-1,11,13,15,-1,-1,-1,-1,-1],"loss_changes":[1.6785572E1,1.7849112E0,0E0,2.4633193E0,1.1141284E0,1.4107931E0,0E0,0E0,0E0,1.3973737E-1,2.5613515E0,3.0680025E-1,0E0,0E0,0E0,0E0,0E0],"parents":[2147483647,0,0,1,1,3,3,4,4,5,5,9,9,10,10,11,11],"right_children":[2,4,-1,6,8,10,-1,-1,-1,12,14,16,-1,-1,-1,-1,-1],"split_conditions":[-7.0325536E-1,-2.8744125E-1,9.480521E-2,-1.1770513E0,-2.0610268E-1,1.0543496E-1,-1.0701404E-1,4.9637467E-2,-3.805762E-2,-3.1533957E-1,-2.8803033E-1,-1.8822944E-1,-7.464918E-2,-5.7824224E-2,8.0722354E-2,-4.476186E-2,1.1398724E-2],"split_indices":[4,1,0,4,9,5,0,0,0,9,9,8,0,0,0,0,0],"split_type":[0,0,0,0,0,0,0,0,0,0,0,0,0,0,0,0,0],"sum_hessian":[3.0571419E1,1.8580488E1,1.19909315E1,1.47597065E1,3.8207817E0,7.92836E0,6.8313465E0,1.9453534E0,1.8754283E0,4.477538E0,3.4508219E0,2.5102103E0,1.9673278E0,1.4986861E0,1.9521357E0,1.4415555E0,1.0686548E0],"tree_param":{"num_deleted":"0","num_feature":"11","num_nodes":"17","size_leaf_vector":"1"}},{"base_weights":[1.0121082E-1,-4.3691522E-1,9.4290964E-2,-7.245843E-1,1.6757978E-1,-1.0074594E-1,-2.1379429E-1,9.1770224E-2,-3.220875E-1,3.111704E-1,-8.925297E-2,-9.4605E-2,4.313465E-2,-4.526345E-2,7.883632E-2],"categories":[],"categories_nodes":[],"categories_segments":[],"categories_sizes":[],"default_left":[0,0,0,0,0,0,0,0,0,0,0,0,0,0,0],"id":23,"left_children":[1,3,-1,5,7,-1,9,-1,11,13,-1,-1,-1,-1,-1],"loss_changes":[1.4417703E1,3.520332E0,0E0,1.7252955E0,2.9088116E0,0E0,2.4357352E0,0E0,2.7796936E0,1.8718455E0,0E0,0E0,0E0,0E0,0E0],"parents":[2147483647,0,0,1,1,3,3,4,4,6,6,8,8,9,9],"right_children":[2,4,-1,6,8,-1,10,-1,12,14,-1,-1,-1,-1,-1],"split_conditions":[-7.0325536E-1,-9.2300534E-1,9.4290964E-2,1.0543496E-1,-1.0586023E0,-1.0074594E-1,-1.1770513E0,9.1770224E-2,-2.8744125E-1,-2.8803033E-1,-8.925297E-2,-9.4605E-2,4.313465E-2,-4.526345E-2,7.883632E-2],"split_indices":[4,10,0,5,4,0,4,0,1,9,0,0,0,0,0],"split_type":[0,0,0,0,0,0,0,0,0,0,0,0,0,0,0],"sum_hessian":[2.9921822E1,1.8545794E1,1.137603E1,1.243129E1,6.1145024E0,7.374784E0,5.056506E0,2.0697355E0,4.044767E0,3.156596E0,1.8999103E0,2.0726414E0,1.9721256E0,1.2335746E0,1.9230212E0],"tree_param":{"num_deleted":"0","num_feature":"11","num_nodes":"15","size_leaf_vector":"1"}},{"base_weights":[5.9170768E-2,-4.509902E-1,9.3172535E-2,-5.45031E-1,4.8763767E-2,-2.682593E-1,-7.733186E-1,-7.153657E-2,-1.9348387E-2,-9.743609E-1,1.4836263E-3,3.487082E-1,-5.3611666E-1,-2.1156844E-2,-1.0691922E-1,-2.3743099E-2,5.8698654E-2,-1.6404599E-2,-6.569197E-2],"categories":[],"categories_nodes":[],"categories_segments":[],"categories_sizes":[],"default_left":[0,0,0,0,0,0,0,0,0,0,0,0,0,0,0,0,0,0,0],"id":24,"left_children":[1,3,-1,5,-1,7,9,-1,11,13,-1,15,17,-1,-1,-1,-1,-1,-1],"loss_changes":[1.3462163E1,1.9572289E0,0E0,9.228759E-1,0E0,1.0564599E0,1.483676E0,0E0,1.5574749E0,3.0928755E-1,0E0,8.117526E-1,4.4670403E-2,0E0,0E0,0E0,0E0,0E0,0E0],"parents":[2147483647,0,0,1,1,3,3,5,5,6,6,8,8,9,9,11,11,12,12],"right_children":[2,4,-1,6,-1,8,10,-1,12,14,-1,16,18,-1,-1,-1,-1,-1,-1],"split_conditions":[-7.0325536E-1,8.7781954E-1,9.3172535E-2,-1.1770513E0,4.8763767E-2,-5.094358E-1,-2.8744125E-1,-7.153657E-2,-1.5841545E-1,-2.447799E0,1.4836263E-3,-1.6113642E0,-6.576627E-2,-2.1156844E-2,-1.0691922E-1,-2.3743099E-2,5.8698654E-2,-1.6404599E-2,-6.569197E-2],"split_indices":[4,2,0,4,0,5,1,0,2,1,0,4,3,0,0,0,0,0,0],"split_type":[0,0,0,0,0,0,0,0,0,0,0,0,0,0,0,0,0,0,0],"sum_hessian":[2.829835E1,1.816239E1,1.013596E1,1.6889563E1,1.2728275E0,8.617254E0,8.272308E0,2.4115398E0,6.205714E0,6.4028234E0,1.8694854E0,3.8142872E0,2.391427E0,1.0652548E0,5.3375688E0,1.103457E0,2.7108302E0,1.1640728E0,1.2273542E0],"tree_param":{"num_deleted":"0","num_feature":"11","num_nodes":"19","size_leaf_vector":"1"}},{"base_weights":[1.2596282E-1,-3.4226102E-1,9.2313156E-2,-5.62042E-1,2.6700601E-3,-6.95222E-1,-1.0427069E-2,2.3221503E-1,-4.1869003E-1,-4.424893E-3,-7.82385E-1,-3.4968078E-2,3.147757E-2,-5.4002203E-2,6.111354E-1,-7.498213E-2,1.4519768E-2,-9.342958E-3,-8.7161325E-2,2.308236E-2,7.668704E-2],"categories":[],"categories_nodes":[],"categories_segments":[],"categories_sizes":[],"default_left":[0,0,0,0,0,0,0,0,0,0,0,0,0,0,0,0,0,0,0,0,0],"id":25,"left_children":[1,3,-1,5,7,9,11,13,15,-1,17,-1,-1,-1,19,-1,-1,-1,-1,-1,-1],"loss_changes":[1.0534389E1,1.3642642E0,0E0,7.9973626E-1,8.7016827E-1,4.6658182E-1,4.5777068E-1,2.032021E0,7.0170826E-1,0E0,3.937726E-1,0E0,0E0,0E0,8.1873536E-2,0E0,0E0,0E0,0E0,0E0,0E0],"parents":[2147483647,0,0,1,1,3,3,4,4,5,5,6,6,7,7,8,8,10,10,14,14],"right_children":[2,4,-1,6,8,10,12,14,16,-1,18,-1,-1,-1,20,-1,-1,-1,-1,-1,-1],"split_conditions":[-7.0325536E-1,1.0543496E-1,9.2313156E-2,1.6737086E-1,-1.0586023E0,-1.264903E0,-1.0980853E0,-6.0665834E-1,-4.011443E-1,-4.424893E-3,-7.9242766E-1,-3.4968078E-2,3.147757E-2,-5.4002203E-2,5.66588E-1,-7.498213E-2,1.4519768E-2,-9.342958E-3,-8.7161325E-2,2.308236E-2,7.668704E-2],"split_indices":[4,5,0,1,4,8,4,6,1,0,2,0,0,0,5,0,0,0,0,0,0],"split_type":[0,0,0,0,0,0,0,0,0,0,0,0,0,0,0,0,0,0,0,0,0],"sum_hessian":[2.6376677E1,1.697621E1,9.400467E0,9.984754E0,6.991455E0,7.8331947E0,2.151559E0,4.8164706E0,2.1749845E0,1.1030166E0,6.7301784E0,1.0161914E0,1.1353676E0,1.4454645E0,3.3710063E0,1.16256E0,1.0124243E0,1.0064206E0,5.7237577E0,1.70049E0,1.6705163E0],"tree_param":{"num_deleted":"0","num_feature":"11","num_nodes":"21","size_leaf_vector":"1"}},{"base_weights":[2.6772587E-2,-6.55524E-1,6.685854E-1,-9.295505E-2,-1.9800073E-1,1.942647E-1,9.067085E-2,-4.784608E-1,3.4940775E-2,8.428003E-2,-3.1192252E-1,-8.48036E-2,8.07559E-3,-7.229469E-2,3.1101054E-2],"categories":[],"categories_nodes":[],"categories_segments":[],"categories_sizes":[],"default_left":[0,0,0,0,0,0,0,0,0,0,0,0,0,0,0],"id":26,"left_children":[1,3,5,-1,7,9,-1,11,-1,-1,13,-1,-1,-1,-1],"loss_changes":[1.1856427E1,1.4637985E0,1.397304E0,0E0,1.1181207E0,2.2092125E0,0E0,1.0021685E0,0E0,0E0,1.2643013E0,0E0,0E0,0E0,0E0],"parents":[2147483647,0,0,1,1,2,2,4,4,5,5,7,7,10,10],"right_children":[2,4,6,-1,8,10,-1,12,-1,-1,14,-1,-1,-1,-1],"split_conditions":[-9.2300534E-1,1.0543496E-1,-7.822213E-1,-9.295505E-2,2.20048E-1,-1.0586023E0,9.067085E-2,-3.139006E-1,3.4940775E-2,8.428003E-2,-2.576702E-1,-8.48036E-2,8.07559E-3,-7.229469E-2,3.1101054E-2],"split_indices":[10,5,4,0,7,4,0,6,0,0,10,0,0,0,0],"split_type":[0,0,0,0,0,0,0,0,0,0,0,0,0,0,0],"sum_hessian":[2.5074398E1,1.2143527E1,1.293087E1,6.9495187E0,5.194009E0,4.928847E0,8.002024E0,3.5176988E0,1.67631E0,1.8691121E0,3.0597348E0,1.8070104E0,1.7106882E0,1.7466834E0,1.3130516E0],"tree_param":{"num_deleted":"0","num_feature":"11","num_nodes":"15","size_leaf_vector":"1"}},{"base_weights":[9.671441E-2,-5.285313E-1,6.336818E-1,-6.266948E-1,2.2652566E-2,6.8584286E-2,8.514437E-1,-7.853002E-1,-1.9396631E-1,4.177461E-1,-3.2369476E-2,1.6293878E-2,9.206627E-2,-9.373641E-2,-1.244952E-2,-4.285578E-2,4.8595674E-2,7.08288E-2,-9.586348E-3,1.9249875E-2,-1.1858868E-2],"categories":[],"categories_nodes":[],"categories_segments":[],"categories_sizes":[],"default_left":[0,0,0,0,0,0,0,0,0,0,0,0,0,0,0,0,0,0,0,0,0],"id":27,"left_children":[1,3,5,7,-1,9,11,13,15,17,-1,-1,-1,-1,-1,-1,19,-1,-1,-1,-1],"loss_changes":[9.030656E0,1.0693259E0,1.7122259E0,6.258273E-1,0E0,8.323923E-1,3.4079838E-1,6.840458E-1,2.694353E-1,5.3490937E-1,0E0,0E0,0E0,0E0,0E0,0E0,9.611387E-2,0E0,0E0,0E0,0E0],"parents":[2147483647,0,0,1,1,2,2,3,3,5,5,6,6,7,7,8,8,9,9,16,16],"right_children":[2,4,6,8,-1,10,12,14,16,18,-1,-1,-1,-1,-1,-1,20,-1,-1,-1,-1],"split_conditions":[-9.2300534E-1,7.755595E-1,-2.8744125E-1,-3.139006E-1,2.2652566E-2,-2.7090147E-1,-6.8892825E-1,5.987881E-1,1.7066172E-1,-3.1595495E-1,-3.2369476E-2,1.6293878E-2,9.206627E-2,-9.373641E-2,-1.244952E-2,-4.285578E-2,-9.912476E-2,7.08288E-2,-9.586348E-3,1.9249875E-2,-1.1858868E-2],"split_indices":[10,2,1,6,0,2,7,7,8,3,0,0,0,0,0,0,3,0,0,0,0],"split_type":[0,0,0,0,0,0,0,0,0,0,0,0,0,0,0,0,0,0,0,0,0],"sum_hessian":[2.4900475E1,1.1511811E1,1.3388662E1,1.0337815E1,1.1739961E0,4.0899897E0,9.298673E0,6.968814E0,3.3690019E0,2.1295698E0,1.9604199E0,1.1558337E0,8.142839E0,5.3249273E0,1.6438864E0,1.3228364E0,2.0461655E0,1.1180593E0,1.0115105E0,1.0182747E0,1.0278908E0],"tree_param":{"num_deleted":"0","num_feature":"11","num_nodes":"21","size_leaf_vector":"1"}},{"base_weights":[6.482366E-2,-3.5965183E-1,8.733105E-2,-5.961036E-1,1.3735057E-1,-7.1698517E-1,1.2076343E-2,8.859537E-2,-4.3483523E-1,-8.58828E-2,-1.774493E-1,6.441552E-3,-7.280386E-2,-5.66845E-2,2.5730614E-2],"categories":[],"categories_nodes":[],"categories_segments":[],"categories_sizes":[],"default_left":[0,0,0,0,0,0,0,0,0,0,0,0,0,0,0],"id":28,"left_children":[1,3,-1,5,7,9,-1,-1,11,-1,13,-1,-1,-1,-1],"loss_changes":[8.665385E0,2.0403345E0,0E0,1.0813961E0,3.034663E0,6.104193E-1,0E0,0E0,6.5826434E-1,0E0,7.1050864E-1,0E0,0E0,0E0,0E0],"parents":[2147483647,0,0,1,1,3,3,4,4,5,5,8,8,10,10],"right_children":[2,4,-1,6,8,10,-1,-1,12,-1,14,-1,-1,-1,-1],"split_conditions":[-7.822213E-1,-9.2300534E-1,8.733105E-2,-9.68658E-2,-1.0586023E0,1.0678896E0,1.2076343E-2,8.859537E-2,-5.112315E-1,-8.58828E-2,8.703434E-1,6.441552E-3,-7.280386E-2,-5.66845E-2,2.5730614E-2],"split_indices":[4,10,0,9,4,8,0,0,8,0,0,0,0,0,0],"split_type":[0,0,0,0,0,0,0,0,0,0,0,0,0,0,0],"sum_hessian":[2.3334835E1,1.5665314E1,7.669522E0,1.0479997E1,5.185317E0,8.967662E0,1.5123348E0,2.0087972E0,3.1765199E0,6.6322637E0,2.3353984E0,1.4640018E0,1.7125182E0,1.0716938E0,1.2637047E0],"tree_param":{"num_deleted":"0","num_feature":"11","num_nodes":"15","size_leaf_vector":"1"}},{"base_weights":[7.6606624E-2,-5.1331323E-1,6.895202E-1,-8.814684E-2,-7.158402E-2,7.839618E-1,1.9146292E-1,-3.0890512E-1,4.7513034E-2,2.3854075E-2,8.943345E-2,2.4456666E-3,2.5857618E-2,8.515914E-2,-7.574564E-2,-2.0633316E-2,4.2894673E-2],"categories":[],"categories_nodes":[],"categories_segments":[],"categories_sizes":[],"default_left":[0,0,0,0,0,0,0,0,0,0,0,0,0,0,0,0,0],"id":29,"left_children":[1,3,5,-1,7,9,11,13,-1,-1,-1,-1,-1,15,-1,-1,-1],"loss_changes":[8.562591E0,1.9114349E0,3.937068E-1,0E0,1.0040994E0,3.5225296E-1,2.9160999E-2,9.860525E-1,0E0,0E0,0E0,0E0,0E0,4.5671368E-1,0E0,0E0,0E0],"parents":[2147483647,0,0,1,1,2,2,4,4,5,5,6,6,7,7,13,13],"right_children":[2,4,6,-1,8,10,12,14,-1,-1,-1,-1,-1,16,-1,-1,-1],"split_conditions":[-9.2300534E-1,1.0543496E-1,-6.955658E-2,-8.814684E-2,2.3017268E-1,-7.2138864E-1,-2.4704081E-1,-1.5841545E-1,4.7513034E-2,2.3854075E-2,8.943345E-2,2.4456666E-3,2.5857618E-2,-1.2254304E0,-7.574564E-2,-2.0633316E-2,4.2894673E-2],"split_indices":[10,5,9,0,2,10,2,2,0,0,0,0,0,10,0,0,0],"split_type":[0,0,0,0,0,0,0,0,0,0,0,0,0,0,0,0,0],"sum_hessian":[2.1702805E1,1.1141645E1,1.0561159E1,5.5339394E0,5.6077065E0,8.395219E0,2.1659403E0,4.2136145E0,1.3940923E0,1.9449959E0,6.4502225E0,1.0120182E0,1.1539221E0,2.6743088E0,1.5393054E0,1.6635953E0,1.0107135E0],"tree_param":{"num_deleted":"0","num_feature":"11","num_nodes":"17","size_leaf_vector":"1"}},{"base_weights":[9.4871536E-2,-3.1880674E-1,8.5742086E-2,-4.9490288E-1,-7.070627E-2,-1.483201E-1,-7.25685E-1,4.4522557E-2,-2.5769913E-1,-4.8046075E-2,1.2313809E-1,-8.699658E-2,-9.026352E-3,2.7982164E-2,-4.4232306E-1,-1.7687714E-2,3.7959516E-2,-3.3575144E-2,3.6595214E-2,-6.404879E-2,9.0483093E-4],"categories":[],"categories_nodes":[],"categories_segments":[],"categories_sizes":[],"default_left":[0,0,0,0,0,0,0,0,0,0,0,0,0,0,0,0,0,0,0,0,0],"id":30,"left_children":[1,3,-1,5,7,9,11,-1,13,-1,15,-1,-1,17,19,-1,-1,-1,-1,-1,-1],"loss_changes":[7.136322E0,6.1307466E-1,0E0,5.729587E-1,8.2136774E-1,4.7914553E-1,3.662014E-1,0E0,3.2933483E-1,0E0,3.2560027E-1,0E0,0E0,5.284879E-1,3.3762532E-1,0E0,0E0,0E0,0E0,0E0,0E0],"parents":[2147483647,0,0,1,1,3,3,4,4,5,5,6,6,8,8,10,10,13,13,14,14],"right_children":[2,4,-1,6,8,10,12,-1,14,-1,16,-1,-1,18,20,-1,-1,-1,-1,-1,-1],"split_conditions":[-7.822213E-1,1.0543496E-1,8.5742086E-2,-2.4923798E-1,-1.6508473E0,-1.3107685E0,1.6737086E-1,4.4522557E-2,-1.5841545E-1,-4.8046075E-2,-6.780627E-1,-8.699658E-2,-9.026352E-3,-9.6965945E-1,8.434695E-2,-1.7687714E-2,3.7959516E-2,-3.3575144E-2,3.6595214E-2,-6.404879E-2,9.0483093E-4],"split_indices":[4,5,0,3,4,1,1,0,2,0,6,0,0,1,3,0,0,0,0,0,0],"split_type":[0,0,0,0,0,0,0,0,0,0,0,0,0,0,0,0,0,0,0,0,0],"sum_hessian":[2.0756123E1,1.383347E1,6.922652E0,7.5089893E0,6.324481E0,3.6580727E0,3.8509169E0,1.315077E0,5.009404E0,1.2988946E0,2.359178E0,2.8375075E0,1.0134094E0,2.2995656E0,2.7098386E0,1.230264E0,1.128914E0,1.1107292E0,1.1888362E0,1.5919467E0,1.1178919E0],"tree_param":{"num_deleted":"0","num_feature":"11","num_nodes":"21","size_leaf_vector":"1"}},{"base_weights":[6.4154774E-2,-3.08289E-1,8.3787404E-2,-4.0532905E-1,5.3331625E-2,-1.319812E-1,-8.163016E-1,-3.676066E-1,7.4646674E-2,-2.169787E-2,-9.833126E-2,-8.4648274E-2,1.7872378E-1,-1.444755E-2,6.1657567E-2],"categories":[],"categories_nodes":[],"categories_segments":[],"categories_sizes":[],"default_left":[0,0,0,0,0,0,0,0,0,0,0,0,0,0,0],"id":31,"left_children":[1,3,-1,5,-1,7,9,11,-1,-1,-1,-1,13,-1,-1],"loss_changes":[6.428117E0,1.456257E0,0E0,1.4855182E0,0E0,2.284294E0,3.3438396E-1,2.3297381E0,0E0,0E0,0E0,0E0,7.563242E-1,0E0,0E0],"parents":[2147483647,0,0,1,1,3,3,5,5,6,6,7,7,12,12],"right_children":[2,4,-1,6,-1,8,10,12,-1,-1,-1,-1,14,-1,-1],"split_conditions":[-7.822213E-1,6.1936253E-1,8.3787404E-2,-1.0586023E0,5.3331625E-2,-9.2300534E-1,-3.1533957E-1,1.0543496E-1,7.4646674E-2,-2.169787E-2,-9.833126E-2,-8.4648274E-2,-3.139006E-1,-1.444755E-2,6.1657567E-2],"split_indices":[4,10,0,4,0,10,9,5,0,0,0,0,6,0,0],"split_type":[0,0,0,0,0,0,0,0,0,0,0,0,0,0,0],"sum_hessian":[2.041054E1,1.4184246E1,6.226294E0,1.3182629E1,1.0016177E0,8.710323E0,4.472305E0,7.3266335E0,1.3836902E0,1.4757456E0,2.9965594E0,3.6115751E0,3.7150583E0,2.522855E0,1.1922033E0],"tree_param":{"num_deleted":"0","num_feature":"11","num_nodes":"15","size_leaf_vector":"1"}},{"base_weights":[8.905333E-2,-3.1430742E-1,8.635039E-2,-5.606738E-1,1.1835213E-1,-7.073039E-1,1.9548671E-2,7.51902E-2,-3.2450688E-1,-3.7842225E-3,-8.195896E-2,2.296765E-2,-6.444528E-2],"categories":[],"categories_nodes":[],"categories_segments":[],"categories_sizes":[],"default_left":[0,0,0,0,0,0,0,0,0,0,0,0,0],"id":32,"left_children":[1,3,-1,5,7,9,-1,-1,11,-1,-1,-1,-1],"loss_changes":[6.1404266E0,1.4613172E0,0E0,1.0821457E0,1.8078864E0,5.212507E-1,0E0,0E0,8.535627E-1,0E0,0E0,0E0,0E0],"parents":[2147483647,0,0,1,1,3,3,4,4,5,5,8,8],"right_children":[2,4,-1,6,8,10,-1,-1,12,-1,-1,-1,-1],"split_conditions":[-7.822213E-1,-1.0238137E0,8.635039E-2,1.1046E0,-1.0586023E0,-1.1303188E0,1.9548671E-2,7.51902E-2,-5.112315E-1,-3.7842225E-3,-8.195896E-2,2.296765E-2,-6.444528E-2],"split_indices":[4,10,0,5,4,8,0,0,8,0,0,0,0],"split_type":[0,0,0,0,0,0,0,0,0,0,0,0,0],"sum_hessian":[1.7787903E1,1.2086821E1,5.701082E0,7.512915E0,4.5739055E0,6.3467946E0,1.1661209E0,1.5947027E0,2.9792025E0,1.103658E0,5.2431364E0,1.1937054E0,1.7854971E0],"tree_param":{"num_deleted":"0","num_feature":"11","num_nodes":"13","size_leaf_vector":"1"}},{"base_weights":[4.3371048E-2,-2.9888347E-1,8.448463E-2,-5.789031E-1,6.084109E-2,-7.8051215E-1,3.1809893E-2,-3.1173825E-1,5.441214E-1,-8.8453494E-2,-2.7976787E-2,1.4973364E-2,-6.278482E-2,7.258209E-2,7.1403123E-3],"categories":[],"categories_nodes":[],"categories_segments":[],"categories_sizes":[],"default_left":[0,0,0,0,0,0,0,0,0,0,0,0,0,0,0],"id":33,"left_children":[1,3,-1,5,7,9,-1,11,13,-1,-1,-1,-1,-1,-1],"loss_changes":[5.5550137E0,1.4741067E0,0E0,1.7180417E0,1.4583765E0,1.1326885E-1,0E0,7.763172E-1,2.4708307E-1,0E0,0E0,0E0,0E0,0E0,0E0],"parents":[2147483647,0,0,1,1,3,3,4,4,5,5,7,7,8,8],"right_children":[2,4,-1,6,8,10,-1,12,14,-1,-1,-1,-1,-1,-1],"split_conditions":[-7.0325536E-1,1.0543496E-1,8.448463E-2,-2.576702E-1,-6.576627E-2,-9.2300534E-1,3.1809893E-2,-1.1770513E0,9.781668E-1,-8.8453494E-2,-2.7976787E-2,1.4973364E-2,-6.278482E-2,7.258209E-2,7.1403123E-3],"split_indices":[4,5,0,10,3,10,0,4,8,0,0,0,0,0,0],"split_type":[0,0,0,0,0,0,0,0,0,0,0,0,0,0,0],"sum_hessian":[1.8330437E1,1.3284591E1,5.045845E0,7.1272483E0,6.157343E0,5.9253416E0,1.2019067E0,3.677314E0,2.4800289E0,4.2715454E0,1.653796E0,1.708903E0,1.9684111E0,1.4046874E0,1.0753416E0],"tree_param":{"num_deleted":"0","num_feature":"11","num_nodes":"15","size_leaf_vector":"1"}},{"base_weights":[1.4732562E-1,-3.7979397E-1,6.268672E-1,-4.9511248E-1,2.4144085E-2,-1.6942075E-2,7.6100445E-1,-7.026157E-2,-1.2637195E-1,2.957276E-2,8.650798E-2,7.1445885E-3,-2.2452766E-2],"categories":[],"categories_nodes":[],"categories_segments":[],"categories_sizes":[],"default_left":[0,0,0,0,0,0,0,0,0,0,0,0,0],"id":34,"left_children":[1,3,5,7,-1,-1,9,-1,11,-1,-1,-1,-1],"loss_changes":[4.677194E0,7.6347184E-1,1.1514425E0,5.1636267E-1,0E0,0E0,1.4972162E-1,0E0,9.5015995E-2,0E0,0E0,0E0,0E0],"parents":[2147483647,0,0,1,1,2,2,3,3,6,6,8,8],"right_children":[2,4,6,8,-1,-1,10,-1,12,-1,-1,-1,-1],"split_conditions":[-1.0238137E0,7.755595E-1,-6.8892825E-1,-2.6072112E-1,2.4144085E-2,-1.6942075E-2,-7.2138864E-1,-7.026157E-2,-2.0610268E-1,2.957276E-2,8.650798E-2,7.1445885E-3,-2.2452766E-2],"split_indices":[10,2,7,9,0,0,10,0,9,0,0,0,0],"split_type":[0,0,0,0,0,0,0,0,0,0,0,0,0],"sum_hessian":[1.6561472E1,7.9884486E0,8.573023E0,6.90897E0,1.0794787E0,1.1980312E0,7.374991E0,3.841677E0,3.0672932E0,2.0503263E0,5.324665E0,1.1074712E0,1.9598219E0],"tree_param":{"num_deleted":"0","num_feature":"11","num_nodes":"13","size_leaf_vector":"1"}},{"base_weights":[5.295544E-2,-2.6364014E-1,8.272495E-2,-3.591063E-1,4.266974E-2,-7.593761E-2,-6.4782244E-1,-4.216271E-1,3.620067E-1,-9.337135E-2,1.6506812E-2,-4.9184053E-3,-6.846846E-2,-2.7309365E-3,6.3889496E-2],"categories":[],"categories_nodes":[],"categories_segments":[],"categories_sizes":[],"default_left":[0,0,0,0,0,0,0,0,0,0,0,0,0,0,0],"id":35,"left_children":[1,3,-1,5,-1,7,9,11,13,-1,-1,-1,-1,-1,-1],"loss_changes":[4.6497774E0,1.0488626E0,0E0,9.712738E-1,0E0,1.2781321E0,1.5595906E0,4.186427E-1,4.2897224E-1,0E0,0E0,0E0,0E0,0E0,0E0],"parents":[2147483647,0,0,1,1,3,3,5,5,6,6,7,7,8,8],"right_children":[2,4,-1,6,-1,8,10,12,14,-1,-1,-1,-1,-1,-1],"split_conditions":[-7.0325536E-1,8.437329E-1,8.272495E-2,-1.1375684E0,4.266974E-2,-5.35254E-1,-2.8744125E-1,-2.4923798E-1,3.3601147E-1,-9.337135E-2,1.6506812E-2,-4.9184053E-3,-6.846846E-2,-2.7309365E-3,6.3889496E-2],"split_indices":[4,2,0,4,0,6,1,3,5,0,0,0,0,0,0],"split_type":[0,0,0,0,0,0,0,0,0,0,0,0,0,0,0],"sum_hessian":[1.7078308E1,1.2589987E1,4.488321E0,1.1481966E1,1.1080204E0,6.434307E0,5.047659E0,3.6167216E0,2.8175855E0,3.6243522E0,1.4233067E0,1.9884282E0,1.6282935E0,1.5456748E0,1.2719107E0],"tree_param":{"num_deleted":"0","num_feature":"11","num_nodes":"15","size_leaf_vector":"1"}},{"base_weights":[1.2456169E-1,-1.5784769E-1,8.0653496E-2,-4.4968498E-1,2.0785905E-1,7.255699E-4,-5.3642035E-1,5.870647E-1,-1.9441451E-1,-6.489756E-1,-5.877401E-3,9.500895E-3,7.5178325E-2,4.602793E-3,-3.8969915E-2,-1.799712E-2,-7.3824614E-2],"categories":[],"categories_nodes":[],"categories_segments":[],"categories_sizes":[],"default_left":[0,0,0,0,0,0,0,0,0,0,0,0,0,0,0,0,0],"id":36,"left_children":[1,3,-1,5,7,-1,9,11,13,15,-1,-1,-1,-1,-1,-1,-1],"loss_changes":[3.2752984E0,1.4163407E0,0E0,2.8963745E-1,1.0576375E0,0E0,2.883476E-1,2.0679009E-1,1.9413418E-1,6.874132E-2,0E0,0E0,0E0,0E0,0E0,0E0,0E0],"parents":[2147483647,0,0,1,1,3,3,4,4,6,6,7,7,8,8,9,9],"right_children":[2,4,-1,6,8,-1,10,12,14,16,-1,-1,-1,-1,-1,-1,-1],"split_conditions":[-7.0325536E-1,1.0543496E-1,8.0653496E-2,-7.5834095E-1,-1.1770513E0,7.255699E-4,1.6737086E-1,8.88444E-1,5.66588E-1,-7.49467E-1,-5.877401E-3,9.500895E-3,7.5178325E-2,4.602793E-3,-3.8969915E-2,-1.799712E-2,-7.3824614E-2],"split_indices":[4,5,0,2,4,0,1,8,5,6,0,0,0,0,0,0,0],"split_type":[0,0,0,0,0,0,0,0,0,0,0,0,0,0,0,0,0],"sum_hessian":[1.5345065E1,1.1394906E1,3.950159E0,6.2097983E0,5.185108E0,1.1368697E0,5.072929E0,2.4326186E0,2.7524893E0,3.815199E0,1.25773E0,1.0055586E0,1.42706E0,1.5761601E0,1.1763293E0,1.0923408E0,2.722858E0],"tree_param":{"num_deleted":"0","num_feature":"11","num_nodes":"17","size_leaf_vector":"1"}},{"base_weights":[1.2678282E-1,-4.3760917E-1,6.876622E-1,-8.251562E-2,8.054875E-2,2.15262E-1,8.487583E-2,-2.2114506E-2,3.4875E-2,7.7476725E-2,-5.522589E-2],"categories":[],"categories_nodes":[],"categories_segments":[],"categories_sizes":[],"default_left":[0,0,0,0,0,0,0,0,0,0,0],"id":37,"left_children":[1,3,5,-1,7,9,-1,-1,-1,-1,-1],"loss_changes":[5.2986765E0,1.7694216E0,4.4950938E-1,0E0,4.4446033E-1,1.9104283E0,0E0,0E0,0E0,0E0,0E0],"parents":[2147483647,0,0,1,1,2,2,4,4,5,5],"right_children":[2,4,6,-1,8,10,-1,-1,-1,-1,-1],"split_conditions":[-9.2300534E-1,1.0543496E-1,-7.2138864E-1,-8.251562E-2,-7.196062E-3,-1.0586023E0,8.487583E-2,-2.2114506E-2,3.4875E-2,7.7476725E-2,-5.522589E-2],"split_indices":[10,5,10,0,7,4,0,0,0,0,0],"split_type":[0,0,0,0,0,0,0,0,0,0,0],"sum_hessian":[1.4787892E1,7.4804125E0,7.30748E0,3.9406176E0,3.5397952E0,2.4523656E0,4.855114E0,1.7484512E0,1.7913438E0,1.4129304E0,1.0394353E0],"tree_param":{"num_deleted":"0","num_feature":"11","num_nodes":"11","size_leaf_vector":"1"}},{"base_weights":[3.4384876E-2,-4.26704E-1,5.7261974E-1,-7.5561605E-2,-7.130321E-2,7.2213836E-2,8.177518E-2,-2.8899914E-1,3.189324E-2,6.9825284E-2,-4.883168E-2,1.5932749E-3,-5.224179E-2],"categories":[],"categories_nodes":[],"categories_segments":[],"categories_sizes":[],"default_left":[0,0,0,0,0,0,0,0,0,0,0,0,0],"id":38,"left_children":[1,3,5,-1,7,9,-1,11,-1,-1,-1,-1,-1],"loss_changes":[4.1083736E0,9.9338055E-1,8.745475E-1,0E0,5.517876E-1,1.6040239E0,0E0,2.9285336E-1,0E0,0E0,0E0,0E0,0E0],"parents":[2147483647,0,0,1,1,2,2,4,4,5,5,7,7],"right_children":[2,4,6,-1,8,10,-1,12,-1,-1,-1,-1,-1],"split_conditions":[-9.2300534E-1,1.0543496E-1,-2.8744125E-1,-7.5561605E-2,2.20048E-1,-1.0586023E0,8.177518E-2,-1.2165343E0,3.189324E-2,6.9825284E-2,-4.883168E-2,1.5932749E-3,-5.224179E-2],"split_indices":[10,5,1,0,7,4,0,4,0,0,0,0,0],"split_type":[0,0,0,0,0,0,0,0,0,0,0,0,0],"sum_hessian":[1.4569856E1,7.9589176E0,6.6109385E0,3.5486548E0,4.410263E0,2.59933E0,4.011608E0,2.9975057E0,1.4127574E0,1.1118453E0,1.4874847E0,1.7036481E0,1.2938575E0],"tree_param":{"num_deleted":"0","num_feature":"11","num_nodes":"13","size_leaf_vector":"1"}},{"base_weights":[7.6799065E-2,-3.009907E-1,4.9870285E-1,-6.730345E-2,-1.088043E-2,-7.741654E-3,6.327436E-1,2.4280895E-1,-2.4507008E-1,2.5122285E-2,7.511372E-2,-1.01853255E-2,4.5735348E-2,-5.5192452E-2,1.5138189E-2],"categories":[],"categories_nodes":[],"categories_segments":[],"categories_sizes":[],"default_left":[0,0,0,0,0,0,0,0,0,0,0,0,0,0,0],"id":39,"left_children":[1,3,5,-1,7,-1,9,11,13,-1,-1,-1,-1,-1,-1],"loss_changes":[2.3195224E0,8.3503073E-1,5.7459164E-1,0E0,3.804136E-1,0E0,6.563139E-2,2.754515E-1,4.857797E-1,0E0,0E0,0E0,0E0,0E0,0E0],"parents":[2147483647,0,0,1,1,2,2,4,4,6,6,7,7,8,8],"right_children":[2,4,6,-1,8,-1,10,12,14,-1,-1,-1,-1,-1,-1],"split_conditions":[-1.0238137E0,2.8576117E-2,-4.6168417E-1,-6.730345E-2,-1.5841545E-1,-7.741654E-3,-2.8744125E-1,-1.2254304E0,1.2791264E-1,2.5122285E-2,7.511372E-2,-1.01853255E-2,4.5735348E-2,-5.5192452E-2,1.5138189E-2],"split_indices":[10,5,7,0,2,0,1,10,2,0,0,0,0,0,0],"split_type":[0,0,0,0,0,0,0,0,0,0,0,0,0,0,0],"sum_hessian":[1.2610669E1,6.804359E0,5.80631E0,2.4029002E0,4.4014587E0,1.1756592E0,4.630651E0,2.095103E0,2.306356E0,1.8360263E0,2.7946246E0,1.0053244E0,1.0897787E0,1.0790272E0,1.2273287E0],"tree_param":{"num_deleted":"0","num_feature":"11","num_nodes":"15","size_leaf_vector":"1"}},{"base_weights":[1.3108722E-2,-2.497081E-1,7.658163E-2,4.2665448E-2,-5.2153045E-1,-4.4083434E-1,4.3294692E-1,-7.598908E-3,-6.800884E-2,-6.526784E-3,-6.2087096E-2,6.9474974E-3,5.934146E-2],"categories":[],"categories_nodes":[],"categories_segments":[],"categories_sizes":[],"default_left":[0,0,0,0,0,0,0,0,0,0,0,0,0],"id":40,"left_children":[1,3,-1,5,7,9,11,-1,-1,-1,-1,-1,-1],"loss_changes":[3.1649618E0,9.676687E-1,0E0,1.4467971E0,3.891592E-1,1.9398957E-1,2.030046E-1,0E0,0E0,0E0,0E0,0E0,0E0],"parents":[2147483647,0,0,1,1,3,3,4,4,5,5,6,6],"right_children":[2,4,-1,6,8,10,12,-1,-1,-1,-1,-1,-1],"split_conditions":[-7.0325536E-1,-1.1375684E0,7.658163E-2,-6.0665834E-1,-5.112315E-1,-3.4264877E-1,1.0543496E-1,-7.598908E-3,-6.800884E-2,-6.526784E-3,-6.2087096E-2,6.9474974E-3,5.934146E-2],"split_indices":[4,4,0,6,8,9,5,0,0,0,0,0,0],"split_type":[0,0,0,0,0,0,0,0,0,0,0,0,0],"sum_hessian":[1.403219E1,1.0895982E1,3.1362085E0,5.65571E0,5.240272E0,2.4683135E0,3.1873968E0,1.7636733E0,3.4765987E0,1.2413379E0,1.2269756E0,1.4150808E0,1.772316E0],"tree_param":{"num_deleted":"0","num_feature":"11","num_nodes":"13","size_leaf_vector":"1"}},{"base_weights":[-5.4349545E-3,-2.594947E-1,7.4643105E-2,2.5985288E-2,-5.350936E-1,-5.117475E-2,3.7749293E-1,-2.9445305E-3,-7.120171E-2,-4.434913E-3,5.727593E-2],"categories":[],"categories_nodes":[],"categories_segments":[],"categories_sizes":[],"default_left":[0,0,0,0,0,0,0,0,0,0,0],"id":41,"left_children":[1,3,-1,5,7,-1,9,-1,-1,-1,-1],"loss_changes":[2.9068727E0,9.0756154E-1,0E0,1.4280074E0,5.001935E-1,0E0,3.9821398E-1,0E0,0E0,0E0,0E0],"parents":[2147483647,0,0,1,1,3,3,4,4,6,6],"right_children":[2,4,-1,6,8,-1,10,-1,-1,-1,-1],"split_conditions":[-7.0325536E-1,-1.1375684E0,7.4643105E-2,-6.0665834E-1,-5.112315E-1,-5.117475E-2,1.0543496E-1,-2.9445305E-3,-7.120171E-2,-4.434913E-3,5.727593E-2],"split_indices":[4,4,0,6,8,0,5,0,0,0,0],"split_type":[0,0,0,0,0,0,0,0,0,0,0],"sum_hessian":[1.3203715E1,1.0358415E1,2.8453007E0,5.532879E0,4.825536E0,2.006892E0,3.525987E0,1.553125E0,3.2724106E0,1.3602533E0,2.1657336E0],"tree_param":{"num_deleted":"0","num_feature":"11","num_nodes":"11","size_leaf_vector":"1"}},{"base_weights":[-4.898825E-2,-2.672525E-1,3.32213E-1,-3.8512066E-1,2.5040353E-2,4.8878437E-1,-1.860631E-2,-5.2358025E-1,2.0540224E-2,5.8939107E-2,7.373181E-3,-6.807663E-1,-1.7399253E-1,-2.0386284E-2,-7.734066E-2,-3.9220475E-2,1.0869297E-2],"categories":[],"categories_nodes":[],"categories_segments":[],"categories_sizes":[],"default_left":[0,0,0,0,0,0,0,0,0,0,0,0,0,0,0,0,0],"id":42,"left_children":[1,3,5,7,-1,9,-1,11,-1,-1,-1,13,15,-1,-1,-1,-1],"loss_changes":[1.2458333E0,6.698125E-1,5.3799367E-1,7.65612E-1,0E0,1.447277E-1,0E0,2.552966E-1,0E0,0E0,0E0,3.44522E-2,2.5562704E-1,0E0,0E0,0E0,0E0],"parents":[2147483647,0,0,1,1,2,2,3,3,5,5,7,7,11,11,12,12],"right_children":[2,4,6,8,-1,10,-1,12,-1,-1,-1,14,16,-1,-1,-1,-1],"split_conditions":[-2.8744125E-1,2.3017268E-1,3.178564E-1,5.987881E-1,2.5040353E-2,6.192756E-1,-1.860631E-2,-3.139006E-1,2.0540224E-2,5.8939107E-2,7.373181E-3,-2.0200041E-1,-1.4244716E0,-2.0386284E-2,-7.734066E-2,-3.9220475E-2,1.0869297E-2],"split_indices":[1,2,3,7,0,8,0,6,0,0,0,5,1,0,0,0,0],"split_type":[0,0,0,0,0,0,0,0,0,0,0,0,0,0,0,0,0],"sum_hessian":[1.2906398E1,8.397286E0,4.5091114E0,7.04842E0,1.3488663E0,3.5066538E0,1.0024575E0,5.8015056E0,1.2469143E0,2.4844062E0,1.0222476E0,3.348549E0,2.4529567E0,1.0652629E0,2.2832859E0,1.1656992E0,1.2872576E0],"tree_param":{"num_deleted":"0","num_feature":"11","num_nodes":"17","size_leaf_vector":"1"}},{"base_weights":[1.2557186E-1,-2.781175E-1,5.714518E-1,-6.854657E-2,8.103817E-2,1.3290937E-1,7.891958E-2,-1.9211125E-2,3.2284915E-1,6.9722466E-2,-4.501569E-2,5.9304632E-2,-1.0142339E-2],"categories":[],"categories_nodes":[],"categories_segments":[],"categories_sizes":[],"default_left":[0,0,0,0,0,0,0,0,0,0,0,0,0],"id":43,"left_children":[1,3,5,-1,7,9,-1,-1,11,-1,-1,-1,-1],"loss_changes":[2.6263046E0,1.2064937E0,5.4834795E-1,0E0,3.9723307E-1,1.4563334E0,0E0,0E0,4.115133E-1,0E0,0E0,0E0,0E0],"parents":[2147483647,0,0,1,1,2,2,4,4,5,5,8,8],"right_children":[2,4,6,-1,8,10,-1,-1,12,-1,-1,-1,-1],"split_conditions":[-9.2300534E-1,1.0543496E-1,-2.8744125E-1,-6.854657E-2,-2.6072112E-1,-1.0586023E0,7.891958E-2,-1.9211125E-2,7.203057E-1,6.9722466E-2,-4.501569E-2,5.9304632E-2,-1.0142339E-2],"split_indices":[10,5,1,0,9,4,0,0,5,0,0,0,0],"split_type":[0,0,0,0,0,0,0,0,0,0,0,0,0],"sum_hessian":[1.2707862E1,6.866942E0,5.8409204E0,2.7918856E0,4.075056E0,2.4722116E0,3.3687086E0,2.010044E0,2.0650122E0,1.156812E0,1.3153996E0,1.018553E0,1.0464592E0],"tree_param":{"num_deleted":"0","num_feature":"11","num_nodes":"13","size_leaf_vector":"1"}},{"base_weights":[-5.6795026E-3,-2.2242314E-1,7.043595E-2,-4.3924382E-1,1.4922605E-1,-5.490638E-1,6.482289E-3,7.146469E-2,-2.7814645E-1,-7.2561495E-2,-6.72585E-3,-6.6625886E-2,2.2698736E-2],"categories":[],"categories_nodes":[],"categories_segments":[],"categories_sizes":[],"default_left":[0,0,0,0,0,0,0,0,0,0,0,0,0],"id":44,"left_children":[1,3,-1,5,7,9,-1,-1,11,-1,-1,-1,-1],"loss_changes":[2.1829886E0,9.396536E-1,0E0,4.2886496E-1,1.344941E0,4.5638955E-1,0E0,0E0,8.2195175E-1,0E0,0E0,0E0,0E0],"parents":[2147483647,0,0,1,1,3,3,4,4,5,5,8,8],"right_children":[2,4,-1,6,8,10,-1,-1,12,-1,-1,-1,-1],"split_conditions":[-7.0325536E-1,-9.2300534E-1,7.043595E-2,-9.68658E-2,-1.0586023E0,1.0678896E0,6.482289E-3,7.146469E-2,-2.8744125E-1,-7.2561495E-2,-6.72585E-3,-6.6625886E-2,2.2698736E-2],"split_indices":[4,10,0,9,4,8,0,0,1,0,0,0,0],"split_type":[0,0,0,0,0,0,0,0,0,0,0,0,0],"sum_hessian":[1.2166795E1,9.847525E0,2.3192704E0,6.1043563E0,3.7431684E0,4.9390316E0,1.1653247E0,1.3219799E0,2.4211884E0,3.2442033E0,1.6948282E0,1.188809E0,1.2323793E0],"tree_param":{"num_deleted":"0","num_feature":"11","num_nodes":"13","size_leaf_vector":"1"}},{"base_weights":[-1.0141941E-1,-4.7150016E-1,3.5740405E-1,-5.8052415E-1,5.0269677E-3,2.775511E-2,6.924694E-2,-7.2797E-2,-1.7216088E-3,3.3365753E-1,-4.692374E-2,5.2227892E-2,-6.6402287E-4],"categories":[],"categories_nodes":[],"categories_segments":[],"categories_sizes":[],"default_left":[0,0,0,0,0,0,0,0,0,0,0,0,0],"id":45,"left_children":[1,3,5,7,-1,9,-1,-1,-1,11,-1,-1,-1],"loss_changes":[2.3634853E0,4.6074247E-1,6.81079E-1,5.1529264E-1,0E0,8.008242E-1,0E0,0E0,0E0,2.09353E-1,0E0,0E0,0E0],"parents":[2147483647,0,0,1,1,2,2,3,3,5,5,9,9],"right_children":[2,4,6,8,-1,10,-1,-1,-1,12,-1,-1,-1],"split_conditions":[-9.2300534E-1,-9.68658E-2,1.6737086E-1,-3.139006E-1,5.0269677E-3,1.0738497E-1,6.924694E-2,-7.2797E-2,-1.7216088E-3,-4.011443E-1,-4.692374E-2,5.2227892E-2,-6.6402287E-4],"split_indices":[10,9,1,6,0,6,0,0,0,1,0,0,0],"split_type":[0,0,0,0,0,0,0,0,0,0,0,0,0],"sum_hessian":[1.192666E1,6.5864725E0,5.3401875E0,5.354948E0,1.2315242E0,3.23768E0,2.1025074E0,4.0123925E0,1.3425559E0,2.2075586E0,1.0301213E0,1.0762444E0,1.1313144E0],"tree_param":{"num_deleted":"0","num_feature":"11","num_nodes":"13","size_leaf_vector":"1"}},{"base_weights":[1.0193599E-1,-2.8573453E-1,5.759429E-1,-4.1437688E-1,1.4093012E-2,2.2879982E-2,6.688104E-2,-5.339866E-1,4.2062225E-3,-7.644464E-2,1.0168079E-3],"categories":[],"categories_nodes":[],"categories_segments":[],"categories_sizes":[],"default_left":[0,0,0,0,0,0,0,0,0,0,0],"id":46,"left_children":[1,3,5,7,-1,-1,-1,9,-1,-1,-1],"loss_changes":[2.4964204E0,4.7823083E-1,4.1720152E-2,3.5717094E-1,0E0,0E0,0E0,6.261307E-1,0E0,0E0,0E0],"parents":[2147483647,0,0,1,1,2,2,3,3,7,7],"right_children":[2,4,6,8,-1,-1,-1,10,-1,-1,-1],"split_conditions":[-9.2300534E-1,2.3017268E-1,-7.2138864E-1,3.7154403E-1,1.4093012E-2,2.2879982E-2,6.688104E-2,-3.2104102E-1,4.2062225E-3,-7.644464E-2,1.0168079E-3],"split_indices":[10,2,10,7,0,0,0,6,0,0,0],"split_type":[0,0,0,0,0,0,0,0,0,0,0],"sum_hessian":[1.1689774E1,6.649015E0,5.040759E0,5.1308327E0,1.5181822E0,1.7949339E0,3.2458253E0,3.930856E0,1.1999768E0,2.4769769E0,1.453879E0],"tree_param":{"num_deleted":"0","num_feature":"11","num_nodes":"11","size_leaf_vector":"1"}},{"base_weights":[5.23564E-2,-1.5136759E-1,6.9127224E-2,1.2660249E-1,-4.3628827E-1,-1.57999E-1,5.554043E-2,-6.23023E-1,6.9207223E-3,-4.2901468E-2,9.544149E-2,-7.1945585E-2,-1.7778678E-2,2.73225E-2,-1.2299617E-2],"categories":[],"categories_nodes":[],"categories_segments":[],"categories_sizes":[],"default_left":[0,0,0,0,0,0,0,0,0,0,0,0,0,0,0],"id":47,"left_children":[1,3,-1,5,7,9,-1,11,-1,-1,13,-1,-1,-1,-1],"loss_changes":[1.7156756E0,8.634731E-1,0E0,8.1273514E-1,5.400486E-1,3.3967918E-1,0E0,4.1440725E-2,0E0,0E0,1.526536E-1,0E0,0E0,0E0,0E0],"parents":[2147483647,0,0,1,1,3,3,4,4,5,5,7,7,10,10],"right_children":[2,4,-1,6,8,10,-1,12,-1,-1,14,-1,-1,-1,-1],"split_conditions":[-7.0325536E-1,-1.1375684E0,6.9127224E-2,6.4344686E-1,-2.8744125E-1,-1.6113642E0,5.554043E-2,1.1770544E-1,6.9207223E-3,-4.2901468E-2,-2.9927573E-1,-7.1945585E-2,-1.7778678E-2,2.73225E-2,-1.2299617E-2],"split_indices":[4,4,0,5,1,4,0,3,0,0,3,0,0,0,0],"split_type":[0,0,0,0,0,0,0,0,0,0,0,0,0,0,0],"sum_hessian":[1.1377141E1,9.2051E0,2.1720412E0,4.940642E0,4.264458E0,3.34924E0,1.5914016E0,2.9443052E0,1.3201529E0,1.2837275E0,2.0655127E0,1.9138837E0,1.0304214E0,1.0004474E0,1.0650651E0],"tree_param":{"num_deleted":"0","num_feature":"11","num_nodes":"15","size_leaf_vector":"1"}},{"base_weights":[1.2581928E-1,-2.3867694E-1,5.733052E-1,-6.560702E-2,9.529102E-2,9.749861E-3,6.702066E-2,2.9202297E-1,-2.5927542E-2,-1.8122567E-2,6.453248E-2],"categories":[],"categories_nodes":[],"categories_segments":[],"categories_sizes":[],"default_left":[0,0,0,0,0,0,0,0,0,0,0],"id":48,"left_children":[1,3,5,-1,7,-1,-1,9,-1,-1,-1],"loss_changes":[2.0787303E0,1.0755504E0,1.9461966E-1,0E0,4.182287E-1,0E0,0E0,7.236059E-1,0E0,0E0,0E0],"parents":[2147483647,0,0,1,1,2,2,4,4,7,7],"right_children":[2,4,6,-1,8,-1,-1,10,-1,-1,-1],"split_conditions":[-9.2300534E-1,1.0543496E-1,-5.862946E-1,-6.560702E-2,-1.1770513E0,9.749861E-3,6.702066E-2,-5.35254E-1,-2.5927542E-2,-1.8122567E-2,6.453248E-2],"split_indices":[10,5,5,0,4,0,0,6,0,0,0],"split_type":[0,0,0,0,0,0,0,0,0,0,0],"sum_hessian":[1.0905662E1,6.267304E0,4.6383576E0,2.3570244E0,3.9102798E0,1.124244E0,3.5141137E0,2.628336E0,1.2819437E0,1.3316455E0,1.2966906E0],"tree_param":{"num_deleted":"0","num_feature":"11","num_nodes":"11","size_leaf_vector":"1"}},{"base_weights":[6.725593E-2,-2.8341186E-1,5.260817E-1,-4.3716145E-1,9.830697E-3,1.1059286E-2,7.185058E-2,-5.786915E-1,4.108804E-3,-1.7536039E-2,-6.829484E-2],"categories":[],"categories_nodes":[],"categories_segments":[],"categories_sizes":[],"default_left":[0,0,0,0,0,0,0,0,0,0,0],"id":49,"left_children":[1,3,5,7,-1,-1,-1,9,-1,-1,-1],"loss_changes":[1.9637798E0,4.5630533E-1,3.3915293E-1,3.7602603E-1,0E0,0E0,0E0,5.1886916E-2,0E0,0E0,0E0],"parents":[2147483647,0,0,1,1,2,2,3,3,7,7],"right_children":[2,4,6,8,-1,-1,-1,10,-1,-1,-1],"split_conditions":[-9.2300534E-1,-2.2821538E-1,-2.8744125E-1,5.987881E-1,9.830697E-3,1.1059286E-2,7.185058E-2,-1.5278555E0,4.108804E-3,-1.7536039E-2,-6.829484E-2],"split_indices":[10,6,1,7,0,0,0,10,0,0,0],"split_type":[0,0,0,0,0,0,0,0,0,0,0],"sum_hessian":[1.0278644E1,6.042692E0,4.235951E0,4.2041073E0,1.8385848E0,1.8392701E0,2.396681E0,3.0820155E0,1.1220918E0,1.1839101E0,1.8981054E0],"tree_param":{"num_deleted":"0","num_feature":"11","num_nodes":"11","size_leaf_vector":"1"}},{"base_weights":[2.8484637E-2,-1.628853E-1,6.5775536E-2,1.19309105E-1,-5.7703984E-1,-9.157141E-2,6.175759E-2,-9.922551E-3,-7.12567E-2,-6.0530484E-2,2.3719005E-1,-7.5644306E-3,4.62956E-2],"categories":[],"categories_nodes":[],"categories_segments":[],"categories_sizes":[],"default_left":[0,0,0,0,0,0,0,0,0,0,0,0,0],"id":50,"left_children":[1,3,-1,5,7,9,-1,-1,-1,-1,11,-1,-1],"loss_changes":[1.4846896E0,1.1876812E0,0E0,7.418829E-1,1.9161487E-1,1.0646676E0,0E0,0E0,0E0,0E0,3.2063437E-1,0E0,0E0],"parents":[2147483647,0,0,1,1,3,3,4,4,5,5,10,10],"right_children":[2,4,-1,6,8,10,-1,-1,-1,-1,12,-1,-1],"split_conditions":[-7.0325536E-1,-1.0586023E0,6.5775536E-2,-9.2300534E-1,-5.112315E-1,1.0543496E-1,6.175759E-2,-9.922551E-3,-7.12567E-2,-6.0530484E-2,-2.6072112E-1,-7.5644306E-3,4.62956E-2],"split_indices":[4,4,0,10,8,5,0,0,0,0,9,0,0],"split_type":[0,0,0,0,0,0,0,0,0,0,0,0,0],"sum_hessian":[1.0439221E1,8.573158E0,1.8660636E0,5.5223145E0,3.0508435E0,4.4536324E0,1.0686822E0,1.0568739E0,1.9939696E0,1.4096694E0,3.0439627E0,1.5546681E0,1.4892946E0],"tree_param":{"num_deleted":"0","num_feature":"11","num_nodes":"13","size_leaf_vector":"1"}},{"base_weights":[-6.272148E-2,-2.5054702E-1,6.2262267E-2,-3.686951E-2,-5.189946E-1,-2.7820414E-1,6.074774E-2,-7.689862E-2,1.1672757E-2,-5.3833526E-2,7.295119E-2,-2.405416E-2,3.3975683E-2],"categories":[],"categories_nodes":[],"categories_segments":[],"categories_sizes":[],"default_left":[0,0,0,0,0,0,0,0,0,0,0,0,0],"id":51,"left_children":[1,3,-1,5,7,9,-1,-1,-1,-1,11,-1,-1],"loss_changes":[1.5569971E0,5.117752E-1,0E0,1.1377841E0,7.295288E-1,5.159443E-1,0E0,0E0,0E0,0E0,3.4112242E-1,0E0,0E0],"parents":[2147483647,0,0,1,1,3,3,4,4,5,5,10,10],"right_children":[2,4,-1,6,8,10,-1,-1,-1,-1,12,-1,-1],"split_conditions":[-7.0325536E-1,-1.0586023E0,6.2262267E-2,-9.2300534E-1,-2.8744125E-1,8.703434E-1,6.074774E-2,-7.689862E-2,1.1672757E-2,-5.3833526E-2,-1.2560173E0,-2.405416E-2,3.3975683E-2],"split_indices":[4,4,0,10,1,0,0,0,0,0,4,0,0],"split_type":[0,0,0,0,0,0,0,0,0,0,0,0,0],"sum_hessian":[9.883662E0,8.255563E0,1.6280996E0,5.2299767E0,3.0255861E0,4.2182903E0,1.0116862E0,2.021159E0,1.0044271E0,2.117003E0,2.1012874E0,1.011375E0,1.0899124E0],"tree_param":{"num_deleted":"0","num_feature":"11","num_nodes":"13","size_leaf_vector":"1"}},{"base_weights":[1.0268023E-1,-6.346343E-2,6.129233E-2,1.6241056E-1,-4.0228957E-1,-1.8163061E-1,4.708369E-1,-6.638435E-2,1.0695915E-2,-4.8635136E-2,2.1833546E-2,1.14227E-2,6.1618872E-2],"categories":[],"categories_nodes":[],"categories_segments":[],"categories_sizes":[],"default_left":[0,0,0,0,0,0,0,0,0,0,0,0,0],"id":52,"left_children":[1,3,-1,5,7,9,11,-1,-1,-1,-1,-1,-1],"loss_changes":[8.897282E-1,7.141254E-1,0E0,7.0084774E-1,5.6096005E-1,5.2822787E-1,1.02537215E-1,0E0,0E0,0E0,0E0,0E0,0E0],"parents":[2147483647,0,0,1,1,3,3,4,4,5,5,6,6],"right_children":[2,4,-1,6,8,10,12,-1,-1,-1,-1,-1,-1],"split_conditions":[-7.0325536E-1,-1.0586023E0,6.129233E-2,8.703434E-1,-7.2138864E-1,-1.1246221E0,-1.2560173E0,-6.638435E-2,1.0695915E-2,-4.8635136E-2,2.1833546E-2,1.14227E-2,6.1618872E-2],"split_indices":[4,4,0,0,10,10,4,0,0,0,0,0,0],"split_type":[0,0,0,0,0,0,0,0,0,0,0,0,0],"sum_hessian":[9.0364895E0,7.4773583E0,1.5591313E0,4.798901E0,2.6784575E0,2.4628096E0,2.3360915E0,1.5690217E0,1.1094357E0,1.2752545E0,1.1875551E0,1.1935849E0,1.1425065E0],"tree_param":{"num_deleted":"0","num_feature":"11","num_nodes":"13","size_leaf_vector":"1"}},{"base_weights":[1.2054085E-2,-1.6581583E-1,6.10626E-2,1.0537585E-1,-4.464398E-1,-3.7471883E-2,3.7957084E-1,-6.7376434E-3,-6.88233E-2,1.0159246E-2,5.0726157E-2],"categories":[],"categories_nodes":[],"categories_segments":[],"categories_sizes":[],"default_left":[0,0,0,0,0,0,0,0,0,0,0],"id":53,"left_children":[1,3,-1,5,7,-1,9,-1,-1,-1,-1],"loss_changes":[1.1804541E0,7.015874E-1,0E0,8.245109E-1,3.5854626E-1,0E0,8.319348E-2,0E0,0E0,0E0,0E0],"parents":[2147483647,0,0,1,1,3,3,4,4,6,6],"right_children":[2,4,-1,6,8,-1,10,-1,-1,-1,-1],"split_conditions":[-7.0325536E-1,-1.1375684E0,6.10626E-2,-6.0665834E-1,-2.2821538E-1,-3.7471883E-2,3.3601147E-1,-6.7376434E-3,-6.88233E-2,1.0159246E-2,5.0726157E-2],"split_indices":[4,4,0,6,6,0,5,0,0,0,0],"split_type":[0,0,0,0,0,0,0,0,0,0,0],"sum_hessian":[9.136412E0,7.6007695E0,1.535642E0,4.18293E0,3.4178395E0,1.3872849E0,2.7956452E0,1.8290539E0,1.5887858E0,1.4451708E0,1.3504745E0],"tree_param":{"num_deleted":"0","num_feature":"11","num_nodes":"11","size_leaf_vector":"1"}},{"base_weights":[3.9371006E-2,-1.2183212E-1,5.9883352E-2,1.3690859E-1,-5.2339166E-1,-1.00762315E-1,6.272923E-2,-6.870277E-2,-4.851642E-3,-5.925845E-2,2.4366777E-1,-1.1785946E-2,4.5816213E-2],"categories":[],"categories_nodes":[],"categories_segments":[],"categories_sizes":[],"default_left":[0,0,0,0,0,0,0,0,0,0,0,0,0],"id":54,"left_children":[1,3,-1,5,7,9,-1,-1,-1,-1,11,-1,-1],"loss_changes":[9.980148E-1,9.8531723E-1,0E0,7.788822E-1,2.5054348E-1,9.9097127E-1,0E0,0E0,0E0,0E0,3.3687046E-1,0E0,0E0],"parents":[2147483647,0,0,1,1,3,3,4,4,5,5,10,10],"right_children":[2,4,-1,6,8,10,-1,-1,-1,-1,12,-1,-1],"split_conditions":[-7.0325536E-1,-1.0586023E0,5.9883352E-2,-9.2300534E-1,-2.8744125E-1,1.0543496E-1,6.272923E-2,-6.870277E-2,-4.851642E-3,-5.925845E-2,8.703434E-1,-1.1785946E-2,4.5816213E-2],"split_indices":[4,4,0,10,1,5,0,0,0,0,0,0,0],"split_type":[0,0,0,0,0,0,0,0,0,0,0,0,0],"sum_hessian":[9.257096E0,7.7936683E0,1.4634285E0,5.140499E0,2.653169E0,3.9975553E0,1.142944E0,1.6409608E0,1.0122082E0,1.3497409E0,2.6478143E0,1.1537347E0,1.4940795E0],"tree_param":{"num_deleted":"0","num_feature":"11","num_nodes":"13","size_leaf_vector":"1"}},{"base_weights":[-7.8333244E-2,-3.7174526E-1,2.7037996E-1,-5.9868533E-2,-2.6056211E-2,4.8349994E-1,-1.7259443E-2,-2.6861096E-2,2.0622129E-2,5.9958614E-2,1.3084504E-2],"categories":[],"categories_nodes":[],"categories_segments":[],"categories_sizes":[],"default_left":[0,0,0,0,0,0,0,0,0,0,0],"id":55,"left_children":[1,3,5,-1,7,9,-1,-1,-1,-1,-1],"loss_changes":[1.1418722E0,4.5104456E-1,5.771557E-1,0E0,2.471108E-1,7.686335E-2,0E0,0E0,0E0,0E0,0E0],"parents":[2147483647,0,0,1,1,2,2,4,4,5,5],"right_children":[2,4,6,-1,8,10,-1,-1,-1,-1,-1],"split_conditions":[-9.2300534E-1,-2.6072112E-1,-1.5148424E-1,-5.9868533E-2,-8.244552E-2,-1.5841545E-1,-1.7259443E-2,-2.6861096E-2,2.0622129E-2,5.9958614E-2,1.3084504E-2],"split_indices":[10,9,9,0,3,2,0,0,0,0,0],"split_type":[0,0,0,0,0,0,0,0,0,0,0],"sum_hessian":[9.1778145E0,4.948245E0,4.229569E0,2.5453784E0,2.4028664E0,2.7939048E0,1.4356643E0,1.0989109E0,1.3039554E0,1.575183E0,1.2187217E0],"tree_param":{"num_deleted":"0","num_feature":"11","num_nodes":"11","size_leaf_vector":"1"}},{"base_weights":[6.850199E-2,-1.0276239E-1,5.9856486E-2,-4.8456824E-1,2.1060276E-1,2.7297505E-5,-6.597498E-2,3.8486805E-2,2.5203435E-3,-3.0854082E-2,3.5341587E-2],"categories":[],"categories_nodes":[],"categories_segments":[],"categories_sizes":[],"default_left":[0,0,0,0,0,0,0,0,0,0,0],"id":56,"left_children":[1,3,-1,5,7,-1,-1,-1,9,-1,-1],"loss_changes":[9.1325885E-1,1.052597E0,0E0,3.3008844E-1,1.8253177E-1,0E0,0E0,0E0,4.7066295E-1,0E0,0E0],"parents":[2147483647,0,0,1,1,3,3,4,4,8,8],"right_children":[2,4,-1,6,8,-1,-1,-1,10,-1,-1],"split_conditions":[-2.576702E-1,1.0543496E-1,5.9856486E-2,-2.4923798E-1,-1.5841545E-1,2.7297505E-5,-6.597498E-2,3.8486805E-2,2.3017268E-1,-3.0854082E-2,3.5341587E-2],"split_indices":[10,5,0,3,2,0,0,0,2,0,0],"split_type":[0,0,0,0,0,0,0,0,0,0,0],"sum_hessian":[8.382468E0,6.9447403E0,1.4377279E0,2.8842351E0,4.0605054E0,1.0305302E0,1.8537049E0,1.7474515E0,2.3130538E0,1.290107E0,1.0229468E0],"tree_param":{"num_deleted":"0","num_feature":"11","num_nodes":"11","size_leaf_vector":"1"}},{"base_weights":[-1.0289373E-2,-1.6706964E-1,5.6430142E-2,5.6162577E-2,-3.713983E-1,-2.379783E-1,4.480387E-2,-5.116086E-1,3.8708698E-3,1.8200053E-2,-5.663663E-2,-9.384965E-3,-6.52404E-2],"categories":[],"categories_nodes":[],"categories_segments":[],"categories_sizes":[],"default_left":[0,0,0,0,0,0,0,0,0,0,0,0,0],"id":57,"left_children":[1,3,-1,5,7,9,-1,11,-1,-1,-1,-1,-1],"loss_changes":[9.53501E-1,3.978448E-1,0E0,6.6202533E-1,2.7548456E-1,5.72757E-1,0E0,1.3781255E-1,0E0,0E0,0E0,0E0,0E0],"parents":[2147483647,0,0,1,1,3,3,4,4,5,5,7,7],"right_children":[2,4,-1,6,8,10,-1,12,-1,-1,-1,-1,-1],"split_conditions":[-7.0325536E-1,-1.1375684E0,5.6430142E-2,-3.139006E-1,-2.8744125E-1,-2.4923798E-1,4.480387E-2,-1.0191194E0,3.8708698E-3,1.8200053E-2,-5.663663E-2,-9.384965E-3,-6.52404E-2],"split_indices":[4,4,0,6,1,3,0,4,0,0,0,0,0],"split_type":[0,0,0,0,0,0,0,0,0,0,0,0,0],"sum_hessian":[8.5379715E0,7.2649317E0,1.2730396E0,3.818403E0,3.4465287E0,2.4055364E0,1.4128666E0,2.3839772E0,1.0625515E0,1.2511736E0,1.1543627E0,1.0210248E0,1.3629522E0],"tree_param":{"num_deleted":"0","num_feature":"11","num_nodes":"13","size_leaf_vector":"1"}},{"base_weights":[5.367418E-2,-8.1679195E-2,5.461492E-2,1.3644573E-1,-4.1294068E-1,-9.154784E-2,5.941246E-2,-8.339435E-4,-6.29422E-2,-3.837752E-2,1.8632488E-1,-1.3184753E-2,4.0894303E-2],"categories":[],"categories_nodes":[],"categories_segments":[],"categories_sizes":[],"default_left":[0,0,0,0,0,0,0,0,0,0,0,0,0],"id":58,"left_children":[1,3,-1,5,7,9,-1,-1,-1,-1,11,-1,-1],"loss_changes":[6.79985E-1,6.594527E-1,0E0,6.579879E-1,3.0676937E-1,4.5539394E-1,0E0,0E0,0E0,0E0,2.7324384E-1,0E0,0E0],"parents":[2147483647,0,0,1,1,3,3,4,4,5,5,10,10],"right_children":[2,4,-1,6,8,10,-1,-1,-1,-1,12,-1,-1],"split_conditions":[-7.0325536E-1,-1.0586023E0,5.461492E-2,-9.2300534E-1,-1.5148424E-1,8.703434E-1,5.941246E-2,-8.339435E-4,-6.29422E-2,-3.837752E-2,-7.196062E-3,-1.3184753E-2,4.0894303E-2],"split_indices":[4,4,0,10,9,0,0,0,0,0,7,0,0],"split_type":[0,0,0,0,0,0,0,0,0,0,0,0,0],"sum_hessian":[8.531856E0,7.3467875E0,1.1850685E0,4.784471E0,2.5623164E0,3.727556E0,1.0569153E0,1.2550899E0,1.3072264E0,1.6310884E0,2.0964675E0,1.0308654E0,1.0656021E0],"tree_param":{"num_deleted":"0","num_feature":"11","num_nodes":"13","size_leaf_vector":"1"}},{"base_weights":[-1.1108398E-2,-1.5866606E-1,5.5082448E-2,7.142539E-2,-3.7322137E-1,-2.0808744E-1,3.543393E-2,2.8245372E-4,-5.1403917E-2,-3.3956613E-2,3.1441094E-3],"categories":[],"categories_nodes":[],"categories_segments":[],"categories_sizes":[],"default_left":[0,0,0,0,0,0,0,0,0,0,0],"id":59,"left_children":[1,3,-1,5,7,9,-1,-1,-1,-1,-1],"loss_changes":[8.779346E-1,4.3776566E-1,0E0,4.57867E-1,2.3815006E-1,1.0747069E-1,0E0,0E0,0E0,0E0,0E0],"parents":[2147483647,0,0,1,1,3,3,4,4,5,5],"right_children":[2,4,-1,6,8,10,-1,-1,-1,-1,-1],"split_conditions":[-7.0325536E-1,-1.1375684E0,5.5082448E-2,-1.4534323E0,-5.112315E-1,-5.35254E-1,3.543393E-2,2.8245372E-4,-5.1403917E-2,-3.3956613E-2,3.1441094E-3],"split_indices":[4,4,0,4,8,6,0,0,0,0,0],"split_type":[0,0,0,0,0,0,0,0,0,0,0],"sum_hessian":[8.534025E0,7.3275337E0,1.2064911E0,3.8576488E0,3.4698849E0,2.0735302E0,1.7841187E0,1.2123406E0,2.2575443E0,1.0690684E0,1.0044618E0],"tree_param":{"num_deleted":"0","num_feature":"11","num_nodes":"11","size_leaf_vector":"1"}},{"base_weights":[3.431498E-2,-2.2940698E-1,2.836212E-1,-5.802582E-2,1.308524E-1,-1.9333017E-3,4.7386622E-1,3.486195E-2,-1.7128877E-2,7.434311E-3,6.296483E-2],"categories":[],"categories_nodes":[],"categories_segments":[],"categories_sizes":[],"default_left":[0,0,0,0,0,0,0,0,0,0,0],"id":60,"left_children":[1,3,5,-1,7,-1,9,-1,-1,-1,-1],"loss_changes":[6.685506E-1,7.095961E-1,3.0688012E-1,0E0,2.7615014E-1,0E0,1.5311271E-1,0E0,0E0,0E0,0E0],"parents":[2147483647,0,0,1,1,2,2,4,4,6,6],"right_children":[2,4,6,-1,8,-1,10,-1,-1,-1,-1],"split_conditions":[1.822938E-1,-9.2300534E-1,8.703434E-1,-5.802582E-2,-3.139006E-1,-1.9333017E-3,-6.576627E-2,3.486195E-2,-1.7128877E-2,7.434311E-3,6.296483E-2],"split_indices":[5,10,0,0,6,0,3,0,0,0,0],"split_type":[0,0,0,0,0,0,0,0,0,0,0],"sum_hessian":[8.178839E0,4.013297E0,4.1655416E0,1.7238237E0,2.2894738E0,1.9533396E0,2.2122018E0,1.241115E0,1.0483587E0,1.0350102E0,1.1771917E0],"tree_param":{"num_deleted":"0","num_feature":"11","num_nodes":"11","size_leaf_vector":"1"}},{"base_weights":[-1.1151874E-2,-1.7126101E-1,5.226317E-2,1.7262973E-2,-2.856968E-1,-4.820233E-2,-9.17138E-2,-3.286549E-2,1.36772115E-2],"categories":[],"categories_nodes":[],"categories_segments":[],"categories_sizes":[],"default_left":[0,0,0,0,0,0,0,0,0],"id":61,"left_children":[1,3,-1,-1,5,-1,7,-1,-1],"loss_changes":[8.597293E-1,3.5178906E-1,0E0,0E0,1.8976396E-1,0E0,2.7910784E-1,0E0,0E0],"parents":[2147483647,0,0,1,1,4,4,6,6],"right_children":[2,4,-1,-1,6,-1,8,-1,-1],"split_conditions":[-7.822213E-1,-3.326342E-1,5.226317E-2,1.7262973E-2,-2.6473933E-1,-4.820233E-2,-9.912476E-2,-3.286549E-2,1.36772115E-2],"split_indices":[4,3,0,0,7,0,3,0,0],"split_type":[0,0,0,0,0,0,0,0,0],"sum_hessian":[8.012288E0,6.685976E0,1.3263115E0,1.542396E0,5.1435804E0,1.8183695E0,3.3252108E0,1.4171821E0,1.9080287E0],"tree_param":{"num_deleted":"0","num_feature":"11","num_nodes":"9","size_leaf_vector":"1"}},{"base_weights":[-1.6223365E-2,-1.7739487E-1,4.5813248E-2,8.030569E-3,-4.6524283E-2,-2.459677E-1,2.59918E-1,-4.104006E-2,5.135824E-3,4.007678E-2,4.5409953E-4],"categories":[],"categories_nodes":[],"categories_segments":[],"categories_sizes":[],"default_left":[0,0,0,0,0,0,0,0,0,0,0],"id":62,"left_children":[1,3,-1,5,-1,7,9,-1,-1,-1,-1],"loss_changes":[7.3914284E-1,3.8502067E-1,0E0,4.0479937E-1,0E0,1.7589203E-1,1.1188905E-1,0E0,0E0,0E0,0E0],"parents":[2147483647,0,0,1,1,3,3,5,5,6,6],"right_children":[2,4,-1,6,-1,8,10,-1,-1,-1,-1],"split_conditions":[-2.576702E-1,-4.011443E-1,4.5813248E-2,-1.1246221E0,-4.6524283E-2,3.430921E-2,-2.3255873E-1,-4.104006E-2,5.135824E-3,4.007678E-2,4.5409953E-4],"split_indices":[10,1,0,10,0,3,3,0,0,0,0],"split_type":[0,0,0,0,0,0,0,0,0,0,0],"sum_hessian":[7.6049676E0,6.1435933E0,1.4613738E0,4.3278117E0,1.8157816E0,2.1665788E0,2.1612332E0,1.1501791E0,1.0163995E0,1.0260247E0,1.1352085E0],"tree_param":{"num_deleted":"0","num_feature":"11","num_nodes":"11","size_leaf_vector":"1"}},{"base_weights":[2.537059E-2,-1.036962E-1,5.1139314E-2,1.3501433E-1,-4.5429847E-1,-4.991338E-2,4.0909197E-2,-5.8784366E-2,-1.3892973E-2,-2.7669936E-2,2.2871384E-2],"categories":[],"categories_nodes":[],"categories_segments":[],"categories_sizes":[],"default_left":[0,0,0,0,0,0,0,0,0,0,0],"id":63,"left_children":[1,3,-1,5,7,9,-1,-1,-1,-1,-1],"loss_changes":[6.097798E-1,7.1786016E-1,0E0,2.960337E-1,6.180483E-2,3.2477632E-1,0E0,0E0,0E0,0E0,0E0],"parents":[2147483647,0,0,1,1,3,3,4,4,5,5],"right_children":[2,4,-1,6,8,10,-1,-1,-1,-1,-1],"split_conditions":[-7.0325536E-1,-1.0586023E0,5.1139314E-2,-3.139006E-1,-4.011443E-1,-1.2560173E0,4.0909197E-2,-5.8784366E-2,-1.3892973E-2,-2.7669936E-2,2.2871384E-2],"split_indices":[4,4,0,6,1,4,0,0,0,0,0],"split_type":[0,0,0,0,0,0,0,0,0,0,0],"sum_hessian":[7.875432E0,6.8444757E0,1.0309566E0,4.4378414E0,2.4066343E0,3.1382585E0,1.2995828E0,1.0837319E0,1.3229024E0,1.7338923E0,1.404366E0],"tree_param":{"num_deleted":"0","num_feature":"11","num_nodes":"11","size_leaf_vector":"1"}},{"base_weights":[4.5714546E-2,-2.3709373E-1,4.2015725E-1,-5.5344667E-2,4.1253522E-2,5.4588066E-3,6.1157953E-2,2.8940408E-2,-2.0424895E-2],"categories":[],"categories_nodes":[],"categories_segments":[],"categories_sizes":[],"default_left":[0,0,0,0,0,0,0,0,0],"id":64,"left_children":[1,3,5,-1,7,-1,-1,-1,-1],"loss_changes":[9.8715526E-1,4.995808E-1,2.4422574E-1,0E0,2.9126516E-1,0E0,0E0,0E0,0E0],"parents":[2147483647,0,0,1,1,2,2,4,4],"right_children":[2,4,6,-1,8,-1,-1,-1,-1],"split_conditions":[-9.2300534E-1,1.0543496E-1,-2.8744125E-1,-5.5344667E-2,-1.5841545E-1,5.4588066E-3,6.1157953E-2,2.8940408E-2,-2.0424895E-2],"split_indices":[10,5,1,0,2,0,0,0,0],"split_type":[0,0,0,0,0,0,0,0,0],"sum_hessian":[7.38127E0,4.4141607E0,2.967109E0,1.603447E0,2.8107138E0,1.4613888E0,1.5057201E0,1.308886E0,1.5018277E0],"tree_param":{"num_deleted":"0","num_feature":"11","num_nodes":"9","size_leaf_vector":"1"}},{"base_weights":[6.2564206E-3,-1.2875316E-1,4.7074404E-2,9.819968E-2,-4.8368968E-2,-1.8120283E-1,3.3003673E-1,-4.0175553E-2,1.2424585E-2,4.981762E-2,-1.751407E-3],"categories":[],"categories_nodes":[],"categories_segments":[],"categories_sizes":[],"default_left":[0,0,0,0,0,0,0,0,0,0,0],"id":65,"left_children":[1,3,-1,5,-1,7,9,-1,-1,-1,-1],"loss_changes":[5.9721994E-1,6.4481574E-1,0E0,4.066308E-1,0E0,2.5697833E-1,2.0043653E-1,0E0,0E0,0E0,0E0],"parents":[2147483647,0,0,1,1,3,3,5,5,6,6],"right_children":[2,4,-1,6,-1,8,10,-1,-1,-1,-1],"split_conditions":[-7.822213E-1,-1.0586023E0,4.7074404E-2,-1.2254304E0,-4.8368968E-2,8.703434E-1,-2.1295413E-1,-4.0175553E-2,1.2424585E-2,4.981762E-2,-1.751407E-3],"split_indices":[4,4,0,10,0,0,2,0,0,0,0],"split_type":[0,0,0,0,0,0,0,0,0,0,0],"sum_hessian":[7.5569715E0,6.415133E0,1.1418387E0,4.354267E0,2.0608656E0,2.0736163E0,2.2806509E0,1.0210555E0,1.0525608E0,1.2449656E0,1.0356854E0],"tree_param":{"num_deleted":"0","num_feature":"11","num_nodes":"11","size_leaf_vector":"1"}},{"base_weights":[9.648257E-3,-1.2951928E-1,4.2675175E-2,-4.160527E-1,1.2884033E-1,-5.8466005E-3,-5.800369E-2,-6.967072E-2,3.8203195E-2,-2.290397E-2,1.3504783E-2],"categories":[],"categories_nodes":[],"categories_segments":[],"categories_sizes":[],"default_left":[0,0,0,0,0,0,0,0,0,0,0],"id":66,"left_children":[1,3,-1,5,7,-1,-1,9,-1,-1,-1],"loss_changes":[5.3632826E-1,5.7041043E-1,0E0,1.7405212E-1,2.495059E-1,0E0,0E0,1.3962345E-1,0E0,0E0,0E0],"parents":[2147483647,0,0,1,1,3,3,4,4,7,7],"right_children":[2,4,-1,6,8,-1,-1,10,-1,-1,-1],"split_conditions":[-2.576702E-1,1.0543496E-1,4.2675175E-2,-1.6584174E-1,-3.139006E-1,-5.8466005E-3,-5.800369E-2,-1.2165343E0,3.8203195E-2,-2.290397E-2,1.3504783E-2],"split_indices":[10,5,0,3,6,0,0,4,0,0,0],"split_type":[0,0,0,0,0,0,0,0,0,0,0],"sum_hessian":[7.28731E0,5.981161E0,1.306149E0,2.54655E0,3.434611E0,1.2271469E0,1.3194032E0,2.3314798E0,1.1031312E0,1.2441404E0,1.0873393E0],"tree_param":{"num_deleted":"0","num_feature":"11","num_nodes":"11","size_leaf_vector":"1"}},{"base_weights":[3.2348875E-2,-1.015908E-1,4.321464E-2,1.11009106E-1,-4.2526685E-2,-2.6458025E-2,3.434304E-1,2.5124997E-3,4.7420416E-2],"categories":[],"categories_nodes":[],"categories_segments":[],"categories_sizes":[],"default_left":[0,0,0,0,0,0,0,0,0],"id":67,"left_children":[1,3,-1,5,-1,-1,7,-1,-1],"loss_changes":[4.52638E-1,4.963652E-1,0E0,5.039925E-1,0E0,0E0,1.2789145E-1,0E0,0E0],"parents":[2147483647,0,0,1,1,3,3,6,6],"right_children":[2,4,-1,6,-1,-1,8,-1,-1],"split_conditions":[-7.822213E-1,-1.0586023E0,4.321464E-2,-6.0665834E-1,-4.2526685E-2,-2.6458025E-2,-1.2254304E0,2.5124997E-3,4.7420416E-2],"split_indices":[4,4,0,6,0,0,10,0,0],"split_type":[0,0,0,0,0,0,0,0,0],"sum_hessian":[6.632968E0,5.52716E0,1.1058079E0,3.7325487E0,1.7946112E0,1.3739313E0,2.3586175E0,1.0339916E0,1.324626E0],"tree_param":{"num_deleted":"0","num_feature":"11","num_nodes":"9","size_leaf_vector":"1"}},{"base_weights":[-7.355725E-3,-2.4091695E-1,2.5023785E-1,-5.0649416E-2,3.6405947E-3,-2.9291643E-3,5.2062448E-2,-2.1428628E-2,1.9619046E-2,3.3097506E-2,-3.259973E-2],"categories":[],"categories_nodes":[],"categories_segments":[],"categories_sizes":[],"default_left":[0,0,0,0,0,0,0,0,0,0,0],"id":68,"left_children":[1,3,5,-1,7,9,-1,-1,-1,-1,-1],"loss_changes":[5.298932E-1,3.0081555E-1,2.8918362E-1,0E0,1.8426153E-1,4.4927987E-1,0E0,0E0,0E0,0E0,0E0],"parents":[2147483647,0,0,1,1,2,2,4,4,5,5],"right_children":[2,4,6,-1,8,10,-1,-1,-1,-1,-1],"split_conditions":[-9.2300534E-1,2.8576117E-2,1.6737086E-1,-5.0649416E-2,8.703434E-1,-2.4923798E-1,5.2062448E-2,-2.1428628E-2,1.9619046E-2,3.3097506E-2,-3.259973E-2],"split_indices":[10,5,1,0,0,3,0,0,0,0,0],"split_type":[0,0,0,0,0,0,0,0,0,0,0],"sum_hessian":[6.8054595E0,3.6031802E0,3.2022793E0,1.2138916E0,2.3892887E0,2.1646512E0,1.0376282E0,1.0678334E0,1.3214552E0,1.0524383E0,1.112213E0],"tree_param":{"num_deleted":"0","num_feature":"11","num_nodes":"11","size_leaf_vector":"1"}},{"base_weights":[1.4858215E-2,-1.8854861E-1,3.0495778E-1,-3.5374522E-1,1.1983104E-2,3.6550123E-2,8.769623E-3,-5.453056E-2,-5.523864E-3],"categories":[],"categories_nodes":[],"categories_segments":[],"categories_sizes":[],"default_left":[0,0,0,0,0,0,0,0,0],"id":69,"left_children":[1,3,5,7,-1,-1,-1,-1,-1],"loss_changes":[5.18236E-1,3.076894E-1,1.530385E-2,1.782594E-1,0E0,0E0,0E0,0E0,0E0],"parents":[2147483647,0,0,1,1,2,2,3,3],"right_children":[2,4,6,8,-1,-1,-1,-1,-1],"split_conditions":[-9.2300534E-1,-3.139006E-1,-1.7823236E-1,-7.196062E-3,1.1983104E-2,3.6550123E-2,8.769623E-3,-5.453056E-2,-5.523864E-3],"split_indices":[10,6,6,7,0,0,0,0,0],"split_type":[0,0,0,0,0,0,0,0,0],"sum_hessian":[6.8080063E0,4.207748E0,2.600258E0,2.6441746E0,1.5635735E0,1.4999602E0,1.1002979E0,1.1070006E0,1.537174E0],"tree_param":{"num_deleted":"0","num_feature":"11","num_nodes":"9","size_leaf_vector":"1"}},{"base_weights":[-7.017121E-3,-1.21986635E-1,3.6275055E-2,6.7003205E-2,-4.2420123E-2,-2.2388605E-2,2.2975309E-1,2.9921872E-3,3.714053E-2],"categories":[],"categories_nodes":[],"categories_segments":[],"categories_sizes":[],"default_left":[0,0,0,0,0,0,0,0,0],"id":70,"left_children":[1,3,-1,5,-1,-1,7,-1,-1],"loss_changes":[3.8943657E-1,4.2493242E-1,0E0,2.9453233E-1,0E0,0E0,9.605998E-2,0E0,0E0],"parents":[2147483647,0,0,1,1,3,3,6,6],"right_children":[2,4,-1,6,-1,-1,8,-1,-1],"split_conditions":[-8.217043E-1,-1.0586023E0,3.6275055E-2,1.822938E-1,-4.2420123E-2,-2.2388605E-2,-2.6072112E-1,2.9921872E-3,3.714053E-2],"split_indices":[4,4,0,5,0,0,9,0,0],"split_type":[0,0,0,0,0,0,0,0,0],"sum_hessian":[7.119727E0,5.9422426E0,1.1774848E0,4.134824E0,1.8074188E0,1.3486621E0,2.7861614E0,1.6581771E0,1.1279844E0],"tree_param":{"num_deleted":"0","num_feature":"11","num_nodes":"9","size_leaf_vector":"1"}},{"base_weights":[3.5516508E-2,-2.6825428E-2,1.4155822E-1,-3.183654E-2,2.825352E-1,1.7920421E-2,-2.2564821E-2,4.0599182E-2,-2.0487471E-4],"categories":[],"categories_nodes":[],"categories_segments":[],"categories_sizes":[],"default_left":[0,0,0,0,0,0,0,0,0],"id":71,"left_children":[1,-1,3,5,7,-1,-1,-1,-1],"loss_changes":[2.8607234E-1,0E0,1.6455136E-1,1.9391961E-1,1.277062E-1,0E0,0E0,0E0,0E0],"parents":[2147483647,0,0,2,2,3,3,4,4],"right_children":[2,-1,4,6,8,-1,-1,-1,-1],"split_conditions":[-5.862946E-1,-2.6825428E-2,-9.6965945E-1,-1.2165343E0,6.192756E-1,1.7920421E-2,-2.2564821E-2,4.0599182E-2,-2.0487471E-4],"split_indices":[5,0,1,4,8,0,0,0,0],"split_type":[0,0,0,0,0,0,0,0,0],"sum_hessian":[6.7019696E0,1.3383577E0,5.3636117E0,2.7524302E0,2.6111815E0,1.3537292E0,1.398701E0,1.5236048E0,1.0875769E0],"tree_param":{"num_deleted":"0","num_feature":"11","num_nodes":"9","size_leaf_vector":"1"}},{"base_weights":[3.9112985E-2,-9.949035E-2,3.251925E-2,1.3769865E-1,-4.5378156E-2,-1.54297715E-2,4.501831E-2],"categories":[],"categories_nodes":[],"categories_segments":[],"categories_sizes":[],"default_left":[0,0,0,0,0,0,0],"id":72,"left_children":[1,3,-1,5,-1,-1,-1],"loss_changes":[3.1782123E-1,5.343755E-1,0E0,4.4637543E-1,0E0,0E0,0E0],"parents":[2147483647,0,0,1,1,3,3],"right_children":[2,4,-1,6,-1,-1,-1],"split_conditions":[-2.8744125E-1,-1.0586023E0,3.251925E-2,6.4344686E-1,-4.5378156E-2,-1.54297715E-2,4.501831E-2],"split_indices":[1,4,0,5,0,0,0],"split_type":[0,0,0,0,0,0,0],"sum_hessian":[6.1994042E0,4.615472E0,1.5839324E0,3.1308124E0,1.4846593E0,1.8801539E0,1.2506585E0],"tree_param":{"num_deleted":"0","num_feature":"11","num_nodes":"7","size_leaf_vector":"1"}},{"base_weights":[-2.0443738E-2,-2.221899E-1,2.2211176E-1,-4.7308944E-2,5.8873435E-3,4.5335893E-2,-1.7332304E-2,-1.9755468E-2,1.836412E-2],"categories":[],"categories_nodes":[],"categories_segments":[],"categories_sizes":[],"default_left":[0,0,0,0,0,0,0,0,0],"id":73,"left_children":[1,3,5,-1,7,-1,-1,-1,-1],"loss_changes":[4.108501E-1,2.621765E-1,4.310465E-1,0E0,1.5786278E-1,0E0,0E0,0E0,0E0],"parents":[2147483647,0,0,1,1,2,2,4,4],"right_children":[2,4,6,-1,8,-1,-1,-1,-1],"split_conditions":[-9.2300534E-1,2.8576117E-2,-1.0682802E-1,-4.7308944E-2,-7.196062E-3,4.5335893E-2,-1.7332304E-2,-1.9755468E-2,1.836412E-2],"split_indices":[10,5,6,0,7,0,0,0,0],"split_type":[0,0,0,0,0,0,0,0,0],"sum_hessian":[6.3873863E0,3.532873E0,2.8545134E0,1.1707369E0,2.3621361E0,1.7087613E0,1.1457522E0,1.049534E0,1.3126022E0],"tree_param":{"num_deleted":"0","num_feature":"11","num_nodes":"9","size_leaf_vector":"1"}},{"base_weights":[-4.6471613E-3,-3.4788078E-1,2.199689E-1,-4.4810336E-2,-5.574175E-3,-1.0665302E-2,4.30636E-2],"categories":[],"categories_nodes":[],"categories_segments":[],"categories_sizes":[],"default_left":[0,0,0,0,0,0,0],"id":74,"left_children":[1,3,5,-1,-1,-1,-1],"loss_changes":[6.568776E-1,7.3545516E-2,4.0116692E-1,0E0,0E0,0E0,0E0],"parents":[2147483647,0,0,1,1,2,2],"right_children":[2,4,6,-1,-1,-1,-1],"split_conditions":[-1.1246221E0,5.66588E-1,-2.7885926E-1,-4.4810336E-2,-5.574175E-3,-1.0665302E-2,4.30636E-2],"split_indices":[10,5,5,0,0,0,0],"split_type":[0,0,0,0,0,0,0],"sum_hessian":[6.5277085E0,2.3649983E0,4.1627107E0,1.3633955E0,1.0016028E0,1.8257588E0,2.3369517E0],"tree_param":{"num_deleted":"0","num_feature":"11","num_nodes":"7","size_leaf_vector":"1"}},{"base_weights":[1.7884418E-2,-2.4265157E-2,1.454615E-1,-7.750228E-2,2.9794782E-1,-1.6392156E-3,-1.0418659E-2,3.485905E-2,8.797283E-3],"categories":[],"categories_nodes":[],"categories_segments":[],"categories_sizes":[],"default_left":[0,0,0,0,0,0,0,0,0],"id":75,"left_children":[1,-1,3,5,7,-1,-1,-1,-1],"loss_changes":[2.948021E-1,0E0,2.2253713E-1,3.4713652E-3,8.573204E-3,0E0,0E0,0E0,0E0],"parents":[2147483647,0,0,2,2,3,3,4,4],"right_children":[2,-1,4,6,8,-1,-1,-1,-1],"split_conditions":[-3.8593614E-1,-2.4265157E-2,-9.6965945E-1,-1.0980853E0,6.192756E-1,-1.6392156E-3,-1.0418659E-2,3.485905E-2,8.797283E-3],"split_indices":[7,0,1,4,8,0,0,0,0],"split_type":[0,0,0,0,0,0,0,0,0],"sum_hessian":[6.8074007E0,1.9411712E0,4.86623E0,2.1761014E0,2.6901283E0,1.1520575E0,1.0240439E0,1.6355153E0,1.0546131E0],"tree_param":{"num_deleted":"0","num_feature":"11","num_nodes":"9","size_leaf_vector":"1"}},{"base_weights":[1.0442661E-2,-3.3565264E-2,1.7681497E-1,-4.8699833E-2,3.4667354E-2,-3.04417E-2,1.97914E-2],"categories":[],"categories_nodes":[],"categories_segments":[],"categories_sizes":[],"default_left":[0,0,0,0,0,0,0],"id":76,"left_children":[1,-1,3,5,-1,-1,-1],"loss_changes":[4.8804557E-1,0E0,2.3457628E-1,2.695153E-1,0E0,0E0,0E0],"parents":[2147483647,0,0,2,2,3,3],"right_children":[2,-1,4,6,-1,-1,-1],"split_conditions":[-3.8593614E-1,-3.3565264E-2,-9.6965945E-1,-2.1295413E-1,3.4667354E-2,-3.04417E-2,1.97914E-2],"split_indices":[7,0,1,2,0,0,0],"split_type":[0,0,0,0,0,0,0],"sum_hessian":[6.445156E0,1.7620921E0,4.683064E0,2.3183587E0,2.3647053E0,1.0231028E0,1.2952559E0],"tree_param":{"num_deleted":"0","num_feature":"11","num_nodes":"7","size_leaf_vector":"1"}},{"base_weights":[-2.237907E-3,-1.3069451E-1,3.9002426E-2,7.894998E-2,-4.3694172E-2,-2.038247E-2,3.566624E-2],"categories":[],"categories_nodes":[],"categories_segments":[],"categories_sizes":[],"default_left":[0,0,0,0,0,0,0],"id":77,"left_children":[1,3,-1,5,-1,-1,-1],"loss_changes":[4.3940222E-1,4.554118E-1,0E0,4.4483337E-1,0E0,0E0,0E0],"parents":[2147483647,0,0,1,1,3,3],"right_children":[2,4,-1,6,-1,-1,-1],"split_conditions":[-8.217043E-1,-1.0586023E0,3.9002426E-2,-1.1246221E0,-4.3694172E-2,-2.038247E-2,3.566624E-2],"split_indices":[4,4,0,10,0,0,0],"split_type":[0,0,0,0,0,0,0],"sum_hessian":[6.7086425E0,5.556001E0,1.152641E0,3.738783E0,1.8172184E0,1.9843348E0,1.754448E0],"tree_param":{"num_deleted":"0","num_feature":"11","num_nodes":"7","size_leaf_vector":"1"}},{"base_weights":[-5.4921854E-2,-1.8071328E-1,2.1660192E-2,-2.7413118E-1,6.299579E-3,-4.08892E-2,-3.7526973E-3],"categories":[],"categories_nodes":[],"categories_segments":[],"categories_sizes":[],"default_left":[0,0,0,0,0,0,0],"id":78,"left_children":[1,3,-1,5,-1,-1,-1],"loss_changes":[2.76114E-1,1.3762785E-1,0E0,1.1246768E-1,0E0,0E0,0E0],"parents":[2147483647,0,0,1,1,3,3],"right_children":[2,4,-1,6,-1,-1,-1],"split_conditions":[-2.8744125E-1,1.1770544E-1,2.1660192E-2,-3.9244536E-1,6.299579E-3,-4.08892E-2,-3.7526973E-3],"split_indices":[1,3,0,6,0,0,0],"split_type":[0,0,0,0,0,0,0],"sum_hessian":[5.938037E0,4.2865934E0,1.6514435E0,3.0085387E0,1.2780546E0,1.4528701E0,1.5556686E0],"tree_param":{"num_deleted":"0","num_feature":"11","num_nodes":"7","size_leaf_vector":"1"}},{"base_weights":[4.6338297E-2,-1.0668902E-1,2.4828126E-1,-3.9722733E-2,6.9084935E-2,3.993192E-2,-4.768939E-3,-1.8553475E-2,2.5824565E-2],"categories":[],"categories_nodes":[],"categories_segments":[],"categories_sizes":[],"default_left":[0,0,0,0,0,0,0,0,0],"id":79,"left_children":[1,3,5,-1,7,-1,-1,-1,-1],"loss_changes":[2.6479E-1,2.87201E-1,1.8108632E-1,0E0,2.4157952E-1,0E0,0E0,0E0,0E0],"parents":[2147483647,0,0,1,1,2,2,4,4],"right_children":[2,4,6,-1,8,-1,-1,-1,-1],"split_conditions":[-9.2300534E-1,1.0543496E-1,-1.7823236E-1,-3.9722733E-2,8.703434E-1,3.993192E-2,-4.768939E-3,-1.8553475E-2,2.5824565E-2],"split_indices":[10,5,6,0,0,0,0,0,0],"split_type":[0,0,0,0,0,0,0,0,0],"sum_hessian":[6.7113137E0,4.0864167E0,2.624897E0,1.0654498E0,3.020967E0,1.5067809E0,1.1181161E0,1.2958531E0,1.7251139E0],"tree_param":{"num_deleted":"0","num_feature":"11","num_nodes":"9","size_leaf_vector":"1"}},{"base_weights":[-1.1415209E-1,-2.1452992E-1,2.3857903E-2,7.247199E-2,-3.762175E-1,-4.716445E-3,1.6119469E-2,-5.5213362E-2,4.4191102E-3],"categories":[],"categories_nodes":[],"categories_segments":[],"categories_sizes":[],"default_left":[0,0,0,0,0,0,0,0,0],"id":80,"left_children":[1,3,-1,5,7,-1,-1,-1,-1],"loss_changes":[3.1509453E-1,3.209645E-1,0E0,4.071132E-2,3.357485E-1,0E0,0E0,0E0,0E0],"parents":[2147483647,0,0,1,1,3,3,4,4],"right_children":[2,4,-1,6,8,-1,-1,-1,-1],"split_conditions":[-2.576702E-1,-1.9920024E-1,2.3857903E-2,-2.8803033E-1,-8.434067E-3,-4.716445E-3,1.6119469E-2,-5.5213362E-2,4.4191102E-3],"split_indices":[10,3,0,9,2,0,0,0,0],"split_type":[0,0,0,0,0,0,0,0,0],"sum_hessian":[6.453803E0,5.3290896E0,1.124713E0,2.1192014E0,3.2098885E0,1.101845E0,1.0173564E0,2.0420752E0,1.1678133E0],"tree_param":{"num_deleted":"0","num_feature":"11","num_nodes":"9","size_leaf_vector":"1"}},{"base_weights":[1.13737546E-1,2.0557465E-1,-1.5504829E-2,-5.495243E-2,4.937906E-2,1.8731432E-2,-3.4998704E-2],"categories":[],"categories_nodes":[],"categories_segments":[],"categories_sizes":[],"default_left":[0,0,0,0,0,0,0],"id":81,"left_children":[1,3,-1,5,-1,-1,-1],"loss_changes":[2.083029E-1,4.5942718E-1,0E0,3.4601042E-1,0E0,0E0,0E0],"parents":[2147483647,0,0,1,1,3,3],"right_children":[2,4,-1,6,-1,-1,-1],"split_conditions":[3.930023E-1,-9.2300534E-1,-1.5504829E-2,-7.4225336E-1,4.937906E-2,1.8731432E-2,-3.4998704E-2],"split_indices":[6,10,0,1,0,0,0],"split_type":[0,0,0,0,0,0,0],"sum_hessian":[6.1473536E0,4.7571373E0,1.3902166E0,2.923675E0,1.8334622E0,1.8058871E0,1.117788E0],"tree_param":{"num_deleted":"0","num_feature":"11","num_nodes":"7","size_leaf_vector":"1"}},{"base_weights":[1.4541147E-2,-9.9942066E-2,3.55454E-2,8.940094E-2,-3.296336E-2,-1.19961485E-1,3.4018982E-2,1.3017356E-2,-3.0988475E-2],"categories":[],"categories_nodes":[],"categories_segments":[],"categories_sizes":[],"default_left":[0,0,0,0,0,0,0,0,0],"id":82,"left_children":[1,3,-1,5,-1,7,-1,-1,-1],"loss_changes":[3.1566456E-1,2.9710436E-1,0E0,2.592264E-1,0E0,1.8316618E-1,0E0,0E0,0E0],"parents":[2147483647,0,0,1,1,3,3,5,5],"right_children":[2,4,-1,6,-1,8,-1,-1,-1],"split_conditions":[-8.217043E-1,-1.1375684E0,3.55454E-2,-3.139006E-1,-3.296336E-2,-2.1587949E-1,3.4018982E-2,1.3017356E-2,-3.0988475E-2],"split_indices":[4,4,0,6,0,3,0,0,0],"split_type":[0,0,0,0,0,0,0,0,0],"sum_hessian":[6.177771E0,5.1538706E0,1.0239006E0,3.159861E0,1.9940094E0,2.0064824E0,1.1533788E0,1.0017476E0,1.0047346E0],"tree_param":{"num_deleted":"0","num_feature":"11","num_nodes":"9","size_leaf_vector":"1"}},{"base_weights":[-3.309879E-2,-1.541207E-1,3.1244516E-2,4.135188E-2,-3.6607046E-2,-1.8900437E-2,2.7747745E-2],"categories":[],"categories_nodes":[],"categories_segments":[],"categories_sizes":[],"default_left":[0,0,0,0,0,0,0],